{"name": "quran_core_net", "layer_dims": [256, 112, 112, 32, 4], "learning_rate": 0.01, "loss_name": "mse", "optimizer": "adam", "train_steps": 6236, "last_loss": 0.04754989221455844, "layers": [{"name": "L1_112x256_relu", "activation": "relu", "out_dim": 112, "in_dim": 256, "W": [[-0.14350190139659738, 0.014826385110545485, -0.060816130907766136, -0.10004043630037837, 0.08573769889262703, -0.037682139735336025, -0.11646215713270804, 0.00938775926773152, -0.13219082255349138, -0.009981807934322282, -0.0891102581542734, -0.03648651087831749, -0.07220883887516183, 0.00036129309349275385, -0.0027935379186799086, -0.028281533392374783, 0.09161114312728294, -0.05235665460905567, -0.0864906134092697, 0.07017676665104715, -0.046046924348741275, 0.0714354679031328, -0.07944935169780568, -0.15907183388051296, 0.05373306884148496, -0.06782182427563746, -0.104364483796363, 0.02183460097475925, 0.02056156929442824, 7.658698816561532e-05, -0.0019261713198323689, -0.0329866694769632, -0.10900467828639278, 0.07828150630070238, 0.05121777173608347, 0.037006631893429814, -0.06581105926500257, 0.06793600421386675, 0.10645497405641802, 0.07030302606721706, -0.08251554635156128, -0.07932347641641849, 0.06732180183138116, 0.050894728776357694, -0.1323310206799858, 0.04191740525042867, 0.10161543936470491, -0.12001624191857296, -0.12251147800610691, 0.03815153932144443, 0.05592725146968412, 0.11277269726504321, 0.043755209108997495, -0.044767308011506704, 0.011375514371487958, -0.08839505399700637, 0.06553316604639253, 0.044189155761415105, -0.029286142665748055, -0.1589984841692083, -0.18093414931524318, 0.015332722193772724, 0.08495581914212186, 0.0032745708510694836, -0.02224910678261531, -0.12517790861843547, -0.01540614470705677, -0.10692351772405884, -0.1540522602354753, 0.06941983738061874, -0.16782835162947152, 0.010503067160887215, -0.11966894596581068, -0.023556517642059627, -0.0672880477956305, 0.005330851801766056, 0.03594880351282645, -0.021138197410115786, 0.029369182048130216, -0.03884251051962777, -0.10932733400453949, -0.11244578640370723, -0.020983903491826883, 0.037767001385281246, -0.09503486374128443, 0.018668132717377772, 0.021358549543901626, 0.061485110438350615, -0.051713445636436456, 0.02954623992292615, -0.08750794786592275, 0.03013679484604344, 0.00797484772024201, 0.08445597249958336, -0.0939735561050242, 0.07586603648953699, -0.02526061277299885, -0.1130096212680665, 0.06482712652527159, 0.06864060839002367, -0.049850839922572235, 0.03355183721164309, 0.11721431811086858, -0.02979647669448825, 0.001983395833089477, -0.0010565704309249135, -0.06706836178621262, 0.016277367531188747, -0.14034541545210977, -0.024748162556206627, -0.05417261295733011, -0.12201541656966441, 0.04783371059619851, -0.021169091963122957, 0.041937524715276175, -0.07920017665620697, -0.011647818426646903, -0.036644052688833084, -0.12044323232270986, -0.14027279682670737, -0.11982886442603166, -0.15549398066395667, -0.11646191169945504, 0.06599231146854256, -0.08416451152814718, -0.1447755988309438, 0.02472238431158172, -0.02114299543885545, 0.001272789079758807, -0.004747952863369445, 0.015081804781572172, -0.08650638994436782, 0.07402397965929351, 0.009000166312801535, 0.12749601954587125, -0.1139747964495315, -0.06522329737036542, -0.051577022230755956, 0.05047489937659572, -0.12238404506650565, 0.003216592285706541, 0.055426578982095534, 0.071545297740392, -0.06303743228292527, -0.0782063725254849, -0.017604565783874856, -0.02325829104300825, 0.0542740412368993, 0.029721102671675353, -0.04862587050290428, -0.1312202560121041, 0.005930870271770916, -0.16141110370123382, 0.0713424118679237, 0.04023944085509442, -0.15251021089092476, 0.1179433441676071, 0.024236011798976734, -0.0362861807018585, -0.10075361599528597, 0.04410459750853818, -0.09251017042008833, -0.10733163222664796, -0.006411387376523784, 0.10992444590164258, 0.016931642503205863, 0.12470891305047094, 0.049880497522660744, 0.017654877398051886, -0.08004277378912969, -0.08186551348326321, 0.01965237200080474, -0.13106701028772214, -0.09660195189692741, 0.01804233474437048, -0.12521962625161454, -0.05978181715535345, -0.04887004472627854, 0.07447890438693358, -0.07758685796708689, -0.16654754431683857, -0.03830575980169685, -0.006211958390041197, -0.13646212954078876, 0.04498138970591106, 0.10210396342626396, -0.07041365898423396, -0.05914564242942458, -0.07833419883354963, 0.015305879211596013, 0.03135727319385767, 0.00955974010888685, 0.10328610023278631, -0.029354460026966206, -0.03602459266584661, -0.023996780582875507, -0.010527348844727696, -0.007762745086683712, -0.12681695656304104, -0.07607195907275754, -0.0890943676801205, 0.00583326507434645, -0.034527923430084616, -0.062089247095416494, -0.021525638703395692, -0.05584598909350596, -0.038357551377572775, -0.11078212356629236, 0.06843815921829108, 0.044785345490025386, 0.013626422301804936, -0.032816474353069815, -0.14308259309378135, 0.03537172470007488, 0.09505266319589403, 0.04468551931176767, -0.10072715612371753, 0.013091381239749728, -0.09245618218313595, 0.09202183519550108, -0.005268769380122032, -0.025773990014458296, 0.05461286814963953, -0.10188389106308783, -0.05622674461049125, -0.07069856841776692, -0.09109252575768642, 0.06266325522592599, -0.017312896989764126, -0.08381686133254024, -0.0233742271168248, -0.08367511086987459, -0.07294356293873594, -0.053806812397333426, 0.05178206369751853, -0.06573039716705083, 0.12198855035480213, 0.013265425834856265, -0.1096012537543129, 0.013588318376457431, 0.03967443033944625, 0.05011518803681067, 0.00259728977992163, -0.04058994278786955, 0.0021955559901206123, -0.16790980889364604, -0.06185368573843445, -0.07254955715769827, -0.11770741902062404, 0.022179324776039233, 0.015991993347490324, -0.1252859355762094, 0.07089354392788967, 0.06791848402750206, 0.021465132262880472, 0.01765160829175763], [-0.31142906802381504, -0.29699872366163976, -0.191028056241977, -0.3600773435118753, -0.11362336929456443, -0.32792169456856496, -0.2508073697029421, -0.04500684288182394, -0.0982468139610666, -0.04111810481243765, 0.14693144849610645, -0.006681023147465354, -0.20783830891461838, -0.11402549155212877, -0.12649047744608316, -0.060330124878282654, 0.03414116077184898, -0.1789883278771075, -0.00693144385415978, -0.34696851580174043, -0.03055796854125764, -0.366885581294154, -0.08248686995340422, -0.10859470771374535, -0.11615282889281532, -0.19676777901885187, -0.10393225851836796, 0.00847367732500412, -0.07439408846053022, -0.028463483073045318, 0.09674925662881906, -0.06487408916853951, -0.22323961784479823, 0.09563776516881453, -0.06071700745405284, 0.06604449214555158, -0.2823979091870974, -0.09855521431927831, -0.2950365289538126, -0.10455419066441338, -0.4051848913261776, 0.3581030143234979, 0.17067888913552182, 0.31125584832440295, 0.27103249930816803, -0.0717645942331232, -0.31355926987101224, 0.1034604980406287, -0.11052248534985917, -0.11391688636192239, -0.005888664845751748, 0.039758210904743546, 0.02235227011557714, 0.00954422904116603, 0.33003386018184067, -0.11929806125705096, -0.3507288895821972, -0.01436153953049528, -0.04221962724546345, -0.26938031460043543, 0.09170880348154298, -0.012342114560685541, -0.3732563744245173, 0.05697834173330332, -0.1881742048144171, 0.0987108608384683, 0.05798988405644595, 0.22153923220805394, -0.3988403625374096, 0.04106357292616744, -0.010440687486432176, -0.14523501405336114, 0.08871981231871823, -0.004677398200426702, 0.34206199371550955, 0.0954697057647649, -0.08533666566614265, -0.08522803574779317, -0.060060061599651396, -0.18370485522883867, -0.08380872155069147, -0.03495488074592322, 0.017285704176855154, -0.05842100792061457, 0.09030491503358734, 0.03313135698745828, -0.14362292048596167, -0.043971039092939534, 0.013987145209738205, -0.06123246981132459, 0.1297915047064194, -0.12315652810317078, -0.09609023146475018, -0.17769853621654258, -0.09982923526235626, 0.11538866611268886, 0.3246923910482994, 0.07821411775711229, 0.12858516855554328, 0.051609510821370136, 0.009989882320869586, -0.09014084273760738, -0.12640996848074204, 0.3064232969284964, 0.24117625337540832, 0.1649388873987348, -0.38971013508103586, -0.19487488267550435, 0.09880033756458054, 0.04122288769959431, -0.06561146817337521, 0.06771645901956791, 0.3420266701244878, 0.019740838717638043, -0.04484799947705917, 0.25881175274983576, -0.025375481444794762, -0.4117802475548432, 0.3810754310879536, -0.09117708954759082, -0.27657487677768716, -0.2802970614786675, 0.01632293043304245, -0.0006497491265463062, -0.06805642176257376, -0.3873437655604808, -0.24067089335760322, 0.05963808017020733, -0.36370811616862775, -0.06227410164920062, -0.0044976910898505695, -0.20096546508003788, -0.13198460351506297, -0.0273591581762907, 0.280541994200447, 0.3126551861350224, -0.023614165598297876, -0.39383594568878266, 0.2053714603257205, -0.25200927820117636, 0.08330667431626601, 0.09127719461287229, -0.02584619716230728, 0.04661078368754182, 0.0432100486282917, -0.006294048130910543, -0.00925257980490421, -0.2917052981947543, 0.09332865542871546, -0.08461138906237908, -0.17579763601243795, -0.11803110491414633, 0.03879561368771456, -0.05247129715263152, -0.1435001611925154, -0.0700978364992833, 0.11107907862439698, -0.07684583888997329, -0.2685245688047563, 0.07292589501748042, -0.023461118024472732, 0.06501990429200044, 0.1751371966210225, -0.2520175653365116, 0.10466390806303472, 0.06063528098674062, 0.30209456856336087, 0.045051424738997065, -0.15648935420140908, 0.06403343966349093, -0.0099983386107773, 0.03943455202494994, 0.30200629804219803, -0.20185750797527588, -0.04977828901807385, 0.038372516930329975, -0.3778610081361317, -0.12734176120207594, -0.30457002329618243, -0.1249782752645082, -0.26156672498679817, -0.2976226170247452, 0.09992801470337123, 0.04054941524401148, -0.31501881088881045, -0.34497535478986413, -0.08650334750454255, -0.0007375048225564673, 0.08780441264731767, 0.2619864298616292, -0.10370229613422613, 0.16853631895333115, -0.2689600950454347, -0.25709725804006456, -0.047328536916549674, -0.12266949071819629, -0.10687323640418878, -0.23913120888120507, 0.019208368291865424, 0.2372411633826187, 0.03968370334455662, -0.01612674935690521, 0.009465677658152483, 0.05606994521757497, -0.18655842849704882, -0.1680042297416035, -0.18413718373028537, 0.16030938071122386, 0.03862406035669266, -0.09142470166484715, -0.04310980527987397, -0.08133115692377604, -0.0615296493846999, 0.08269626038605815, -0.06970837090809477, -0.36418905402945956, 0.0344419968771931, 0.04132098796537492, -0.38702507415608006, -0.07340302136433485, -0.3051491581449927, -0.20097008881920397, -0.07099813651068002, 0.2766749759504382, -0.005452716568059998, -0.3899917610613672, 0.05155858119412629, -0.4066764804921954, -0.3775074733615053, -0.4055753527425026, 0.07528109559389076, 0.1027350328571979, -0.30521881271639656, 0.09619395685622684, -0.11292423486204152, -0.008438528566380332, -0.03478604344168744, 0.04914372089435051, -0.09296215428606996, 0.010790485749177209, -0.08378243757658736, -0.354629133832827, -0.15807064536312188, -0.060713126768349945, 0.04298824694089007, -0.002843633078850827, 0.0983705395763686, -0.21680381387657718, 0.10045745300683123, -0.31985690442979303, -0.08944976074548783, -0.05654131104305822, 0.11954703174638026, -0.1768010571873102, -0.052206546969315024, -0.39470970796487004], [-0.1993793616683656, 0.043908464722136706, 0.040197946636648496, -0.13365450103120308, -0.0638479029306879, -0.008893548554354778, -0.04557542221672625, -0.02836614872322056, 0.07701352029731318, -0.01008990921517082, 0.12145054771624861, -0.07072529781911377, 0.0220660113886737, -0.07981536441341397, -0.011191502957008562, 0.12122398400538728, 0.06824538885684908, -0.12357079360814341, 0.06090997646944152, -0.1263317817868404, -0.09914704954701338, -0.03679675840466397, 0.07895142878336986, -0.0685572404522157, 0.08958510459093594, -0.16709682510013857, -0.018541439795028813, -0.09349694070161157, 0.10105413096551927, -0.20136273423553316, -0.029054638207073047, 0.01978093107006229, 0.048098441817042314, -0.09181061479594334, -0.08919442072644487, 0.04437835770395154, -0.1456275324400619, -0.03479502046832113, -0.10312088529765329, 0.023644352098636377, 0.06113098903890907, -0.07903090419316247, -0.17261213845936163, -0.09503842393967643, 0.028135449689095787, 0.004620749118237066, 0.07855858369950389, 0.013976799345579272, 0.027765373443530944, -0.07433967807129613, 0.017988081431919795, 0.046466105833105786, -0.11375581232544628, 0.04573526317747068, 0.03707009968073292, 0.024654892949041135, -0.05794426220338804, 0.02973657949034214, 0.026414265382451424, -0.1146937384073582, 0.04590674688052185, -0.0494206224413585, -0.025783744416100027, -0.16358847319974587, 0.029650768077780998, 0.08357857791587098, 0.013496481993348047, -0.04282102513107487, -0.032393823620386904, 0.01765293215014852, 0.10774067757560599, -0.1790395549899409, -0.13250745641786266, -0.0926368048517416, 0.004342398180854995, 0.030529563203177346, 0.026672963532800437, -0.050735737694753445, -0.0558319646932906, 0.053160051738242224, 0.08436865239962571, -0.048200734721575725, 0.10656845662595113, 0.003113868729950564, -0.08847297456365082, 0.05715000068007009, -0.038683667925668734, -0.09890936060911518, -0.0022728182679381814, -0.09059297476775474, 0.09881697518744331, -0.11027006592522962, -0.0441778576601833, -0.16128516038250162, 0.03626637468528024, -0.10505236154957476, 0.08783993304292059, -0.006937803035203314, -0.11790401985236994, -0.11904517698398637, 0.02568177409112432, -0.019758454124095798, 0.057687075824695844, -0.1831068176124783, -0.1301980516030674, -0.0412948884126632, 0.08196175495618638, -0.10521699728403272, 0.1124874558897885, -0.06136583302062622, -0.014994799950310667, 0.05071336821111356, -0.12440638379738107, 0.012663405981642228, 0.02049814694244112, -0.0331572451399223, 0.06264374656415791, 0.05019386357620343, -0.0688364771553856, 0.05454010379433256, 0.12253372497831949, 0.06636922622200866, 0.0324209368550088, -0.17297181200536993, -0.11319913904973336, -0.1896817018819044, -0.1491715696197191, -0.11169909023283625, -0.12216310829146727, 0.026208372827616705, -0.0836078794722899, -0.06869592233979122, -0.03554522893569088, 0.0003345252664355425, 0.04218478641658768, 0.045184392403554985, -0.04652750812387267, -0.11116201212966029, 0.030713361623973458, -0.1613003091214891, -0.10626126169764973, -0.1265981787794226, -0.12531337910532114, -0.006373265630542815, -0.07171353334351005, -0.07931339254046021, 0.02355381554199379, 0.08837149495952507, -0.11420082369743326, -0.10688125624900252, 0.0614941101986928, -0.047054756356483554, -0.13453384220534811, -0.08266597346109104, -0.0025533498511423605, 0.032158121860653754, 0.10062632036327493, 0.0697041158743024, 0.00999761077422448, 0.019694436070243904, -0.10108425984384045, -0.07880064771357963, 0.036926582892327094, -0.03828787949322557, -0.07730827133257734, -0.08098300923795318, 0.026838611428953718, -0.059320395817853824, 0.10492679129255272, -0.08848897973857604, 0.0011642226622154337, 0.008417614296159342, -0.1549924318511998, 0.00911329340831616, 0.11339449720380188, 0.1123267013376493, 0.018036069261500698, 0.08381275130001578, 0.09359281857051022, 0.06271362220297547, 0.04694233346166603, 0.10227860940159128, 0.0223931621545434, 0.03986267761094417, -0.04550849472628818, 0.09965227787352776, 0.026556844726508072, 0.061678340380835174, -0.00019941421592845066, 0.03376458695016077, -0.021012209279486757, -0.1276842743290553, -0.12312872471055959, -0.06003349606405181, -0.047816191802159055, 0.08845095810933298, 0.11063477946037392, -0.09868684489536916, 0.10233104587970376, 0.001994275487048266, -0.12114844000669331, 0.10282947579092322, 0.06078299199588244, 0.010539689875900288, -0.042496967127409746, -0.03569621764691968, -0.03189951307525207, 0.05724645596872016, -0.055746504584364406, 0.059674686879173953, 0.11619725896279129, -0.06755785586345775, -0.006466357695830052, 0.11290222360266577, 0.08676279070785278, -0.0206982229757018, 0.014384967147406919, -0.01940827860347455, -0.056958862713915565, -0.1747795646270531, 0.10109760444885987, 0.08992174870559533, 0.08799617916985819, -0.046760305232091015, 0.11880650268972143, -0.011718282059161575, 0.12639557381269373, -0.10729002331271424, 0.0634031695564877, -0.12113171796946327, -0.037148634143235784, 0.07009755235122628, 0.0481027707471226, 0.035852650406298286, 0.0832608483281983, -0.13301352384120535, -0.10065944321953356, -0.001230276390758428, 0.12396525295787542, -0.06604855849404292, -0.0439493011844129, 0.12143053661142983, -0.10711091508358846, 0.021899627160510665, 0.11716040270212491, -0.19749580955126003, 0.04364526872574376, -0.07995526369224681, -0.11062659841937271, -0.09113210881902412, 0.06382345359775504, -0.16931654333859691, -0.04513846902716298, -0.06575302104329331, -0.17958864408482603, -0.10125741052688052], [-0.10348699040367366, -0.05824711830969667, -0.09907612417746961, -0.04513067274554919, 0.10997348862929104, -0.06544776433682942, 0.025384663313572198, -0.00174001816917968, -0.10767263739760546, -0.05263967950742121, 0.014187258557994992, 0.09785797548558148, -0.05078116346210508, -0.03615412631512274, 0.01810456595199053, 0.033169012875583326, 0.10009956167665102, -0.10546177932247444, 0.022500111982793586, -0.12411952931168493, 0.10772845580001231, 0.11348833469414035, -0.09072191185735615, 0.1043104412556799, -0.11121770663797086, -0.05612656441702317, 0.025574199690560823, -0.1095848323418582, -0.08921300007280261, 0.10930071292822177, 0.04806592752856825, 0.07300188045910697, 0.0004688445302358235, -0.015377853651030532, -0.06389610167952049, -0.060321823553542694, -0.08492676863979362, -0.08466708743913906, -0.0022150196053170035, -0.02580677004670376, 0.11632280621957661, 0.008348414012435024, 0.09029039405237083, 0.023560923059969263, -0.006599266209288815, -0.04782020646558183, 0.0662153716202194, -0.12729279529705823, 0.003787642681778197, 0.09464705191149039, -0.03333289914701085, 0.11440626473380167, -0.04791680405110131, -0.12392304642085683, -0.03063561986142481, -0.12505140004303136, -0.01698762215074079, 0.0799184061109798, -0.07585547627750935, -0.1052427624802508, 0.09516858726366817, 0.04481128626033734, -0.11186382136834358, 0.0037984420695264254, -0.06026908119364745, 0.03344045001993812, -0.01342027489371736, 0.06206834362169572, -0.042686224658817856, -0.06150964152668574, 0.03443539741007476, -0.01358952423779601, 0.10721704916739572, 0.019119032448526196, -0.12711200050577498, -0.02675252946306074, -0.031228396631124256, 0.07816457692953685, 0.032331774565321325, -0.016082419258031375, -0.1011504031201063, -0.03764037552628732, 0.09466121382886603, -0.04410575611222342, 0.06101537675172061, -0.019179585830146423, -0.09397318482998407, 0.12487282902752778, 0.08744048854998471, -0.07703482383171714, 0.11207158281202342, -0.019770790703442495, -0.11699744870840184, 0.09838008596026254, -0.05517200530555297, -0.11706576907353122, -0.026877018458942123, -0.05989031633700438, 0.06839134556570275, -0.11402947211397098, 0.06098933814293436, -0.10161065575717576, -0.09207014703836253, -0.0009918998050577887, 0.040811824767667704, 0.03221270660043618, 0.07606972947578525, -0.01714584701087428, 0.09372694261875722, 0.11631939162962343, -0.10073620224169866, -0.030526218546272674, -0.03886642108717399, 0.005568731854083964, -0.04463016223894775, 0.08044457964825916, -0.018608304040908713, 0.04278267736496441, 0.08434024436405671, -0.10339669816234011, 0.09365934280840707, -0.03264529904782126, 0.10330799128102658, 0.07254970080535159, -0.03491187072037537, -0.07298625430020378, 0.04166563428631587, -0.04368415441263397, 0.03934874266445029, 0.06064753865140016, 0.09468434967259848, -0.05402929066049576, 0.12110044305028964, -0.027387409144215696, 0.08503482035671031, -0.07262964973420666, 0.02429343608193077, 0.06742010607132026, 0.10485588241013588, -0.024577975497317398, 0.0868738617316481, 0.01867013938383008, 0.0016759514716001567, 0.025766392572845964, -0.04133796459970422, -0.04667075287108764, 0.02285220622695766, -0.11209716895324977, 0.10511296943954768, -0.02839250754206861, -0.0228315711028544, -0.11773686914754085, 0.02902884551896856, -0.12318751089639818, 0.09293125440311562, 0.10129304985548376, 0.04949214025043372, 0.07737005029609337, -0.020396478293131334, -0.0454489697985245, -0.01913853575394707, -0.12674726123350627, -0.052772353415869416, -0.0665991371667378, -0.011740032254125593, 0.0517362017151701, -0.06107009356265883, -0.014455521051935191, -0.03755725965050187, 0.02448151708455673, -0.03267580869356318, 0.05885070226480296, 0.0858930329299579, 0.0954317356913642, -0.05657611689896344, -0.06319822560656291, -0.019029111863906975, 0.07706760824028563, -0.08446065944132769, -0.11889549085605013, -0.014392368013310841, 0.10835469501510134, -0.06380957316856936, -0.08581829480184426, -0.015336369715967108, 0.029096018127813456, -0.021038846555173824, -0.04276821607849764, -0.020556342239985356, 0.11972879214609028, 0.0866868631472674, 0.04269470144733692, 0.05418880065254192, -0.0362965635969895, -0.033613789613446424, -0.08996361082187745, 0.08048721332057424, -0.10628502828455447, 0.09360842546915252, 0.016338416055677846, -0.11688268716261707, 0.061379969890419495, -0.1271932016981519, -0.013061326265727036, 0.12682180283860361, -0.0631850837083699, -0.030479143075733045, -0.12260875535267712, 0.031090048975862233, 0.01937632721752358, -0.004717146155134272, 0.09959592801156458, 0.015563640965953224, 0.10254232147458836, -0.015612265092655633, 0.014079726849914459, -0.021073999891038198, -0.1153671011864805, 0.11024623780717152, -0.022234885920331293, 0.08178828294485466, 0.0762674897230034, 0.05795768117945793, 0.061997461670284165, 0.09471990782492024, -0.11510856030920878, 0.08313916592213066, 0.03764562169919994, 0.006365789767142638, -0.02816826707721161, 0.009182848790117853, 0.11294708057085887, 0.023913026612401356, -0.01702887813000742, 0.02884715701252938, 0.10789248473006585, 0.00918108570882778, 0.05993697077113164, -0.0337142021112013, 0.0015591913558255233, -0.10175860683352056, -0.03273854563337088, -0.09434888191289403, -0.05929462199610021, 0.12117450850988093, 0.04947894176141074, 0.012341277302471865, 0.013855384318241626, 0.017442126525100854, 0.08635257082188516, -0.03501742193914531, -0.1083210966399025, 0.07297788386334433, 0.09325752727310818, -0.05053280831122982, -0.114567917019436], [-0.3536446908364923, -0.258081626238441, -0.4240652634255228, -0.2711893868586977, 0.002886647988088409, -0.3540314951036106, -0.35401189773955866, 0.027114077041841572, -0.07352002421877327, 0.022830581550025625, -0.0435201924833197, 0.08238154633584208, -0.024013535188206092, -0.05658237176863759, 0.10367744099755455, -0.09578252791020152, -0.007569604512602773, -0.18884559326403633, 0.10410807811434603, -0.014157326508228527, -0.09275929750391823, 0.030434153252670015, -0.004361750666086156, -0.27990720914466216, -0.08348167361568531, -0.1811459387232776, 0.05078627131729338, 0.0037685283334240316, -0.047462867099883496, -0.07311716551736958, -0.07240299347809467, 0.08931078098071407, 0.060522701712482585, 0.11250346265670796, -0.21594907011834774, -0.2014884277562798, 0.004692355844685303, 0.027095920450205563, 0.11216642458630441, 0.10630354236229803, -0.029654690050147925, 0.04993406063294453, 0.1170121413704866, 0.08611428100149482, -0.16996049037365563, -0.08213624582896512, 0.0760371837261535, 0.0947481223936521, 0.011891940946356316, -0.2244350705605363, -0.015773341525570694, -0.05159830866816355, 0.1032384776829541, -0.05433704660293383, 0.04233459758571309, -0.12383098951684322, -0.3159490789736303, -0.07730059659665292, -0.08906302167279079, 0.05494427128324966, -0.010380132740983844, 0.08271589675683888, -0.009417178595406625, -0.040862881119782396, -0.273748317593621, 0.09263630733481659, 0.06266836408276374, -0.1885140538944879, 0.045652186115002075, 0.1157516500684963, 0.09903523863480002, 0.00465954691667006, -0.20033542705779178, 0.06058951522677705, 0.0995737158153221, -0.07985853919552119, 0.03626549821442754, -0.07870452225599923, 0.10076202280645688, -0.08028619869339532, 0.008630768506969033, -0.22199014802187267, 0.1122738910138735, 0.1171232824547852, -0.05921455747536822, 0.03859105868162349, -0.25289516665035133, -0.06301196833676448, -0.16922113764372845, -0.08244384611118824, 0.041971425567323056, -0.23598045392076566, -0.08799815843762415, -0.18649599256155952, -0.035607427783591966, -0.10763125556457152, -0.12448722843328697, 0.022298619001584613, 0.009912396952440838, 0.06716291571053731, -0.048596761424722856, -0.07656550107014012, -0.26698143056665996, 0.007041082133905335, -0.12013834990181119, 0.12294808345694302, -0.09007192185414543, 0.06485862539199108, -0.09493122371676967, -0.010390993659710218, 0.04359286254756717, -0.007615495534139982, -0.012569567825314987, -0.2770012926352078, 0.007576532413233222, -0.007141088834281523, -0.06154210925502461, 0.10957175819491949, -0.18701846574870312, -0.07827912094731651, 0.11443042111230897, -0.04613743333191064, -0.04644436240304073, 0.12299465367606888, 0.0023012974291692634, -0.04606357553209345, 0.02171930858041876, 0.0552817266001199, 0.007158835475363057, 0.027864401538347183, -0.11612170936530128, 0.036818077332899435, -0.3571109387593883, 0.022497302192829388, -0.30079377659879775, 0.06413343956867368, -0.249329391815569, 0.058887381532856664, 0.07275467023267232, 0.059045144314997355, 0.09743468484810572, -0.28901408830049685, -0.044147928386419885, 0.11502890126545284, -0.053306158861101585, 0.08339099089496455, 0.08656562112305902, 0.02708485190416121, -0.053607774374597905, -0.11057011991329652, -0.30433562102136313, -0.12410969083904211, -0.0907061624304844, 0.025426341870798924, -0.20524983321528437, 0.07613353582869142, -0.05419242021292672, -0.11760103484195827, -0.27353415837618866, -0.1271090360221833, -0.022453866113979357, 0.012375701643614567, -0.12685568465574226, 0.03463694936864656, -0.014441204037765012, 0.08393653016010963, 0.041701837879769665, -0.014519244018156394, -0.24809053164892936, -0.07916883818363346, -0.07173952829289965, -0.0380889603291959, 0.07401172126574193, -0.043810470506936636, -0.043138501063074416, -0.1798670515797883, -0.12136767133210602, -0.11251975809519164, -0.0024409665403758996, -0.1196239053436954, -0.03245999097670141, 0.04036288733724658, -0.024038482984626006, 0.0008660453173101879, 0.10585108330484327, -0.24662784215654215, -0.2928873860044759, -0.026585520686086828, -0.18150046498532524, -0.10658291558159286, -0.029214667763770102, -0.29426473908054823, -0.331300269893505, -0.24073427710386117, -0.0983240921062952, 0.09907106071922667, -0.061729390599242526, 0.05015491565082078, 0.10543106364680327, -0.12193657859921236, 0.09698563796225346, 0.11668893688449003, -0.33414696066578103, -0.12364384525864615, -0.3354639063726786, -0.2650786914194551, -0.04216679350624433, 0.11442206144038175, 0.10001385790860348, 0.11575276594590303, 0.05820208417448161, -0.03750200094172107, -0.1175894680243509, -0.012528386620498863, 0.0426429622849068, 0.08474169168860868, -0.04236702217472897, -0.12144643650162595, -0.26923628401277283, -0.10234780873146558, 0.014465453537290507, 0.0034696288940066766, -0.38572813641944853, -0.060491477437017216, -0.09815012125800295, -0.0301106231174553, -0.0573057965164564, -0.08565574789616376, 0.048633714683863044, -0.09130155678590643, 0.10373251683210977, -0.10992843689018673, -0.24962788181710366, 0.07505458415180224, -0.16540519260241998, -0.12234915805563659, -0.11570135697624041, 0.03738094247308796, 0.10382026982713555, -0.026660846698220483, 0.02031254977223093, 0.045076892679400626, 0.08289228976034768, -0.2868469139274816, 0.014974673238357078, -0.0891994882911242, -0.1695811812278686, -0.030609507523063337, -0.06909831555065381, -0.058172538455919034, 0.054836846716776994, 0.021955253233246486, -0.01810191759746313, -0.09378055851672978, -0.026329975022475874, 0.11885758253377354], [-0.05718192637425758, -0.09613271617903281, 0.06266791408977387, -0.08534828920144163, 0.05719229212197949, -0.027111842988342585, 0.00889747661598847, -0.10308852404128709, 0.10910721745450072, 0.1067966699718309, -0.015339739537865965, 0.10004072784702558, 0.11786523632408677, 0.02704087829484919, -0.07094602547209364, -0.09813094461417984, 0.015750928494884686, -0.12416021789179746, -0.09454097837898899, 0.04276812979412256, -0.04458154708016067, 0.010148777143275473, 0.11970781159615115, -0.006728823882268753, 0.026384338113456557, -0.12758594301764534, -0.11583270031323736, -0.1062524753432942, 0.10244478047654001, -0.11995239398521927, -0.018986494376748722, -0.10878077951275132, -0.09995279595369207, 0.05236931587866117, -0.07402676119069235, 0.022659311023755235, -0.04598783684981121, -0.00103139126768384, -0.02867058760674182, -0.02431566998464868, -0.0543992477756266, 0.12449074596269744, 0.04917396564861343, 0.030458139977438348, 0.12244308559685035, 0.04321433728915322, -0.06023516872551543, 0.10766244388348961, -0.04613918935324632, -0.01663029134307273, 0.12278950972161418, 0.02242108800662035, -0.1262896336904197, 0.03234204038666483, -0.01261977216445638, -0.04706987275752299, 0.0008410562134019139, -0.10330788741808887, 0.006897331901326131, -0.047678155461887944, 0.01019822307472279, 0.03971504150265254, -0.0356195407393914, -0.019243139666133696, -0.05671409920242426, 0.06840426539977654, -0.10307976169469395, -0.04372046733815803, 0.002682270245560031, -0.004587402273610708, 0.028490796379629174, -0.028039788627040887, 0.015244863370796363, -0.11992593254664749, -0.10271922061385702, 0.043477894029274766, -0.05774607195798556, -0.1273611972301333, -0.047154720543662584, -0.06933169407718721, -0.08838914476926388, 0.02638389573983646, 0.04330842638774557, 0.10127601090637367, -0.11463439870256921, 0.0902935532657693, -0.02383263529062335, 0.04033509989914383, -0.03311797007242592, -0.02938710005518197, -0.11220057326444634, 0.0686921240834828, -0.0048148631551441085, 0.016285316192941574, -0.0018139180570356517, -0.028287134117851095, -0.030688108722597016, -0.12186939357451676, -0.03599296733046119, 0.11660497435371583, 0.0922443622754022, -0.10639498277262735, -0.030854319651254652, -0.10790185104228787, -0.07203806218253207, -0.03655063579343788, -0.10814846565959446, -0.10152447719519272, 0.052857644549356736, 0.00038669963044205, -0.06092858052310199, 0.11413457244069444, -0.07501975716768802, -0.07986053544824433, -0.06196682062978322, 0.05575537763192273, -0.07529474632506808, 5.7617159193668055e-05, 0.06416676332066326, -0.03956716690944094, 0.018639715598214784, -0.050816378645545154, -0.12731722964549716, 0.03956875471303414, 0.11851507896172847, -0.10269267891965218, -0.1237584158841058, -0.06984031130435617, -0.08902229556163668, -0.023424063063941736, -0.10712250766740927, 0.026340365504038454, 0.01387335897622946, 0.07587493428583328, 0.02616842454685067, -0.08298661857904323, -0.025291026238851586, 0.03702814905002025, -0.0434297501714252, -0.029738483520041173, 0.03017275119027621, 0.008491767798446459, -0.07710717157481761, -0.0018114410903323774, 0.00878250538976133, 0.11426024817406583, -0.073272251534472, -0.020471471796485174, -0.040485031624161574, 0.01255443086431296, 0.1086160357253271, -0.11353448318457778, -0.04626152905131438, 0.09249078581617404, -0.0009211265725766193, 0.015254807650318919, 0.11110255277819525, -0.0047215075942979995, -0.033380283572426395, -0.09432844257779689, 0.030175286886481745, 0.002651925147628603, -0.014335593461382634, -0.0614857134935991, 0.029552180453453175, 0.1007282202272694, -0.07985836252638469, 0.05336854594322488, 0.09711185370490674, -0.11135014377406935, 0.05697611635882621, -0.12169100008848943, -0.08759906874978374, -0.02477817399090468, 0.06049116056975257, -0.07302787430229099, 0.08640693678175337, 0.08076697279920167, -0.1233070057124122, -0.03218858522338333, -0.021030839266949694, 0.045212446472332635, 0.07385986721775181, -0.05106460209494754, 0.0357505034937709, 0.08520124002654778, -0.018191390324461085, -0.028183881594143215, 0.0732297032428526, -0.12686289291162328, -0.03533139062138038, -0.05788697563805284, 0.07600567182713097, -0.003675312183066201, -0.030849665596784953, -0.10895452825845041, 0.032961064201925266, -0.0185291938382985, 0.058354108570555785, -0.027752850862990258, 0.09942539030161729, -0.0372243183402802, 0.032866798363792554, -0.0262764110806549, -0.012251338682219323, 0.06388930392518838, -0.1145731072843161, 0.11235624529569915, -0.024817029140326213, 0.06227159629003387, 0.10541888334085456, -0.02335118317249875, -0.10081591795136177, 0.06106748003674603, 0.03385458787093712, 0.05227315770809127, 0.11316942079746559, 0.04200636263300739, -0.050889392792602545, -0.12572928474516293, 0.05291817256771697, 0.03804105554613957, 0.09470754307232082, 0.12097684142325424, -0.020586373550620318, 0.09100475021210952, -0.08097446859911249, 0.06663645122900588, -0.0784583484046737, 0.09197488729957526, -0.1155652723222501, -0.004108171139983394, -0.0797771500736402, 0.08815918493299596, 0.10350274245310281, -0.07214585237076532, 0.07882801577477766, -0.08953022832632321, -0.11656355261513872, 0.12046771954688704, 0.04362844250285078, 0.09383186984738245, 0.018412297670179517, -0.02776485463645928, 0.051208617014777524, -0.037901457316879744, 0.04507320809475451, 0.04315864763777616, -0.03921662997904729, 0.07149328233997651, -0.017741113266584868, -0.08656572440887644, -0.09462220627822931, -0.04496026369987478, 0.07846689161946757, 0.11972059498448542], [-0.16321189938316225, -0.3363183707373032, -0.3039318053522416, -0.212914179806672, -0.11844579907499755, -0.3326875075298078, -0.25125658136745466, 0.09321767774051504, -0.05592608764969065, -0.3433747041183396, -0.3392724266945581, 0.03554558918934653, -0.26846744751024604, 0.261993761812017, 0.2977534941772213, 0.2089875825869822, 0.3356064056199064, -0.20548157129340194, 0.07226178863464289, 0.14371654426320604, 0.12886364912886852, 0.14260416472565893, 0.24788156548503, -0.02423896843759285, 0.05638465786725275, -0.09882666706361189, 0.06142231961913844, 0.3399809369545119, 0.3266137410676825, 0.07820490854455836, 0.2950002656424988, -0.11120666264330334, 0.10778528933167297, 0.08757662421337511, -0.07708633696125428, -0.06448787628002621, -0.34924848393233165, 0.04572669288379269, -0.09160277152547334, -0.07020347806296627, 0.02518514830082269, -0.29471002799605317, -0.4260491905720454, -0.3873450723017008, 0.27416712072597194, 0.04949745545658374, -0.016890847367556472, -0.24548412419713905, 0.10515795385696056, -0.315453939825647, -0.019878547879852243, -0.06914936915351813, 0.05148631421917216, -0.03928240095789104, -0.17867895728962863, -0.403817047689123, -0.21308837540259823, 0.08900518965773094, 0.2120332624545094, -0.3884376245654769, -0.05575074215886243, 0.10165725949881693, -0.3319683362003585, -0.37276551833475846, 0.23846633010990947, 0.008508888214407678, 0.1264231724200004, -0.12076514218437873, -0.3422438153848102, -0.03842593170260307, 0.08820990557424693, -0.3636112795502751, 0.11143152950933713, 0.05555311761691184, -0.204882369406866, -0.28751440548622237, -0.2528669547213746, -0.0382315457476647, -0.06739602820803693, -0.0025600968933598423, -0.3749768840627223, 0.12190901680400484, -0.34624623480074707, -0.07611993415945939, -0.05735956619725899, 0.08060743137756995, -0.004931585483356191, -0.35633394703252386, -0.11950176727230134, -0.12047184399906881, 0.030858176298065393, 0.21781448672071232, -0.3876743286091862, 0.10785986434317016, -0.014768496286288083, -0.12724675613959824, -0.36655330423742405, -0.11187204736596373, 0.27374297920695106, 0.022472950753854026, 0.3103860637475614, 0.23994494471877487, 0.29185918363058144, -0.314981072886768, -0.22967880735615698, -0.17116214268249277, -0.10676274249658524, -0.17027747604696844, 0.12319466861912182, 0.0029224224203664717, -0.2001081869769829, 0.10685696441770506, -0.09447623948967585, -0.37260826305947387, -0.018028142753904713, -0.3185642591697755, 0.08564526517382093, -0.0781750198942868, 0.2156520425619667, -0.3740725533609091, -0.05151533562571149, 0.12168546191459773, -0.12696610108594025, 0.21737569752153094, -0.05483035705437679, 0.09479538144560465, 0.3209367164691842, 0.11013929575484288, 0.33508779724029314, 0.04165065389835035, 0.02742122467537983, -0.01673274469963032, -0.3248291644992386, 0.015323491267421524, -0.34912599916106335, 0.1675272194497014, 0.015652439585469663, -0.3275021379264637, 0.10008355033742428, -0.11506795602854368, -0.03732975511213403, 0.3223311851778937, -0.16914974048809892, -0.019483137927978053, -0.10676504276569124, 0.33352019647168996, 0.253974835143407, 0.33775641094259773, 0.002018651513915809, 0.04226518733748266, -0.10671226683314146, 0.03707495552532111, -0.18280294713877673, 0.10803376115993932, 0.16281994119463422, -0.11217799146540516, 0.32154669951788084, 0.005902046017596391, -0.17300089492522208, 0.34781426729453147, 0.000548048151564895, -0.12562661047131782, -0.3768933675362344, 0.31228152177428414, -0.009625300744248735, -0.17938788493680993, -0.24860706837444885, 0.08108185424600375, -0.3762536853439847, -0.11927516671085692, -0.35671141376479243, -0.0420885500579362, -0.30304098655969347, -0.2858580978818839, 0.1344735977195953, -0.28855685847433243, -0.06884294800178413, -0.02062181288395025, -0.29728158132164484, 0.11682231249689759, -0.10569143546813323, -0.11856443678698461, -0.4055463133694228, -0.05248928187832942, 0.1074301879827814, -0.009331279714967292, 0.01974228098171646, -0.01026737449187233, -0.24607676736891446, -0.06650587161225202, 0.10818716743869988, -0.09814056076460836, 0.21760483274710252, 0.3257036156132853, -0.34348334369845596, -0.12478321673744798, 0.07368866429422427, -0.009205361311288296, -0.03773770589332048, 0.024687724174996678, 0.23512502969161975, 0.24534128743020012, 0.2472981230403553, -0.2758791597019476, -0.10408438220679422, -0.271327824645055, 0.12213969856392833, -0.0862754657428638, 0.11558440868486955, -0.011523764256615235, -0.34571068026699486, -0.07057624080560188, 0.20604350425825144, 0.12719426390005933, 0.065012967544533, -0.23949849779254187, 0.2835286457494049, -0.11791433150149777, 0.3183169553199418, -0.374718526642592, -0.02499682433095883, -0.17493006185590423, 0.05192257656504759, -0.1082740102117722, -0.03651437264029976, 0.08666388245464254, -0.10122042564041633, -0.10510021989757418, -0.21825402523284543, 0.16545759472745955, 0.33025235712905243, -0.07444887776959568, -0.04446906989419132, -0.33431934537535, -0.40129072797322224, -0.022125823024395364, 0.11052142369326601, 0.05579503164777802, -0.06327685296119064, -0.3234225084867447, 0.06834734451851748, -0.14312559406940395, 0.33555178702908617, 0.22340847854840262, 0.05314272464271341, 0.019929705309200546, 0.33992227371885675, -0.2893617169581405, 0.32933474140813035, -0.33526433765073, -0.24346764631819678, 0.046469100259067225, 0.10455511678420545, -0.35040761098193507, 0.007841584998203283, -0.016070794305488453], [-0.3653765328016345, -0.2271688593824956, -0.3350243837620799, -0.2413550586657573, -0.11917641759674448, -0.33030103145211426, -0.3821510384508041, -0.11108545783616816, 0.08735430062167565, -0.06523889524660323, -0.056294687127534854, 0.04215408460562323, 0.030581764145254736, 0.11535756453468618, -0.0789708532846928, 0.014625525951050183, 0.03367486160075059, 0.048234953174268375, 0.06406978201539346, -0.2221326525306191, -0.028081162802698706, 0.026465345482145353, 0.011840768299507087, -0.04598620470542979, -0.093436765837831, 0.013700220346983927, -0.017325645756988098, 0.037115902618329616, -0.13111401428619462, 0.05073164688634341, 0.11125614345133697, 0.1029812487541549, -0.12252552188519394, -0.008937598357540752, 0.04798846736497245, 0.10822558578421806, 0.1005843030206931, 0.039571871990194324, 0.030877247861745366, -0.10787917155206711, 0.04305079323606459, -0.09958660029343208, -0.07861914290037825, -0.09889027235070212, 0.08029556847499908, 0.06915803312520971, 0.012073932550139166, 0.07695285481832681, -0.09719113009745577, -0.15146036599570747, -0.07653923416829947, -0.022863500847439655, -0.057680320638055615, -0.03190853827358606, -0.101091727201249, -0.08402985391903782, -0.04631664939006275, 0.0013037449440305993, 0.12561139953007372, -0.2169789524032062, -0.17484315900982147, 0.09474886455846812, 0.006946232975881567, 0.09412479968722134, -0.008397147471667782, 0.12304844522380809, 0.09857781913171237, 0.043081053484542525, -0.22551783937870093, -0.10878092631568081, -0.11275704276188443, -0.19645810232619462, -0.12790376653554486, 0.12702444296188198, -0.08042001061436961, -0.06716742132735042, -0.050901862732591244, 0.02170389961956201, -0.015433300644245654, 0.05031064105361793, -0.06803919718562004, -0.030970622488988256, 0.0887216606099219, 0.03489666427093954, 0.09064129660912734, 0.045777911396659154, -0.06834126977668906, -0.01723587062462914, 0.12566790021995455, -0.05560778013988081, -0.08078120399604885, -0.054389870176571486, 0.01196454591358903, -0.03227683680534194, -0.057453019453531956, -0.08403991531379924, -0.1616253128194466, -0.060762836611286036, -0.033471039592245136, -0.09084235647319075, 0.054062651542671536, 0.1109578953747313, 0.0018134547248307709, -0.12163772937493911, -0.1058429207895711, -0.13438844051568336, -0.03978929291653098, 0.018162785742511733, -0.13075643609834034, -0.12073230042991559, -0.05776834467451625, -0.04238826475350789, -0.05612237146298821, -0.22599371403139495, 0.06891109949592772, -0.02711488014650336, 0.002533191355421016, 0.060219285761129226, -0.060560762237400756, -0.18070372347648744, -0.01364284685348155, 0.12566126170984743, -0.007972965547455926, -0.11250700727812747, 0.11009678186714641, 0.03204644557364561, 0.10199100444892381, 0.030690143070552067, -0.015794015603111833, 0.07102897813629325, -0.11670649083386395, -0.030010990425059794, -0.04250641615011752, 0.11774535815329207, 0.0762676091868077, 0.01514390150259029, 0.09377308674699111, 0.12090928224662376, -0.03721529647531817, 0.02378611113068943, 0.07708665993381811, 0.08896997057592007, 0.04536929591870842, 0.04958573453981677, -0.0818502791570578, -0.05953596535871457, -0.08408112015496033, -0.01869336344575842, -0.12254006841106546, 0.06016976693332873, -0.07032097879433163, 0.036532053186848934, -0.09140481039680462, -0.049175964709201034, -0.07197810705610777, -0.09175160164477614, -0.10045630565549749, -0.006407747245249618, 0.10611725290281204, -0.08260006355182106, 0.03361130345428798, -0.08162892711742824, -0.07960480408924807, -0.036850691829126946, -0.0013091581598476398, 0.1204621981736036, -0.15047634292764994, -0.0038050822362777903, -0.13997023224436328, -0.05681787265275662, -0.06708457088054659, -0.08990555718374464, -0.24319039789209734, -0.2420363077130357, -0.11801949212515166, -0.025659899982170706, 0.08172315546074133, -0.10108947953049513, -0.04881574416369042, -0.12050706422118992, 0.018389248829248916, 0.02201056809495272, -0.0030095166439497723, -0.09169677825298042, 0.04646875671398856, 0.09580562487602273, 0.016013728642147174, -0.026407014765762557, 0.12440852346771053, 0.09220198524350942, 0.00021226450574451938, -0.05119151359184053, -0.023157011414364714, -0.07524274583868254, 0.013647604133392083, 0.082019973323683, -0.04694356345612141, -0.07594430350603729, -0.08753242768678354, 0.07923684519757751, -0.09129082486735482, -0.0428124313307405, 0.11906062690231331, -0.024933575277535754, -0.1889832638697394, -0.17687720300994417, -0.26983528473073437, -0.06378055067051805, -0.04662102104576034, -0.22460580177794823, -0.07923555619191577, -0.08838032123945289, -0.12628234727223311, 0.11848759368329567, -0.12408410233159697, -0.1327530594709144, -0.11740159941942394, 0.04426611302646177, -0.22189342978209786, -0.07573063078226697, -0.10116443289317668, -0.1379487555697178, 0.07589594715129286, 0.12266347124615651, -0.06290186980925395, -0.04125535882883459, 0.056952335125379866, 0.0031178326447753035, -0.10385823945076048, 0.0919210170951564, -0.08963909584035731, -0.057547239382731805, -0.011310029153316692, -0.10165706946366487, -0.13067846222373272, 0.07118716099910272, 0.03606771216247284, 0.07877776678130499, 0.04826894506495416, 0.001960623570080311, 0.10975572825117438, -0.07448330487616221, 0.09126466139427133, -0.23837692593744989, 0.010879164245951173, 0.02840102325730287, -0.12318139739172751, -0.12646727856540133, -0.10354713529685622, -0.12334499998429825, -0.11299184850877542, -0.031948905338546475, -0.06362388742335333, -0.14799267477571612, 0.06099645788806243, 0.08358613138352908], [-0.03534689352575869, -0.013202936514552501, -0.05038587473166574, 0.007752085018391015, -0.12415827472723742, -0.05245233276627249, -0.13524926354113603, -0.16592048919412405, -0.07845195169512284, -0.1139538280997584, 0.10618332643803816, 0.0028847928529058264, 0.09065748574430343, -0.022181599976173486, 0.04062655663814188, 0.008608455996043679, 0.04370406875659011, 0.12548939846451457, -0.051950953570697414, -0.1279891462821441, 0.04844781580398632, -0.017119709337482025, 0.10063779105063969, -0.1526160765158161, 0.06770336233739926, 0.026352642872550222, -0.11140995998465861, -0.03914635671173801, 0.05911727002651998, -0.07327056111097803, -0.12077619118466128, 0.10954278521729816, -0.0475445218560227, 0.10917876223239581, -0.12116852164567771, 0.03041328389409023, -0.13577596747085716, -0.011391710101374491, 0.123061305507086, -0.07175039882547002, -0.07438759994111134, 0.09101395923942499, 0.00878571104236293, -0.18066583379807666, -0.03192504612080048, 0.04517834423296316, 0.020338644916261223, 0.03573752923874418, -0.051419468496403775, -0.0893747419995004, 0.058202570544459487, -0.06273643249138605, 0.12342906674901721, -0.09603603107489728, -0.04417831787539189, 0.04496008966033305, -0.03835747193029333, -0.09597573208993218, 0.0613513063550401, -0.08898949489998177, 0.0037582105345984377, 0.04948978698640105, 0.09551981167511608, -0.14778920012203522, -0.0776169730239836, -0.1117586474344186, 0.09533695175066673, -0.1036798250104951, -0.14721782198161792, -0.019013719246404808, -0.07078595641406484, -0.14809261655154565, 0.06585975640798206, -0.10643149609224258, -0.03676440708753333, 0.08290358195378919, -0.004887186618336745, 0.04523806856346417, 0.02497635379714991, 0.03371338372418488, -0.02564657890635269, 0.12598470574373966, -0.0028031348147550816, -0.11947081026310329, -0.11370045510913308, -0.1258468680838037, -0.15708832693240182, -0.08758804240549484, -0.04102591876564671, 0.059722951548277024, -0.03690258391500412, 0.029391634558164875, 0.04242659079109641, -0.07375884211551345, 0.10802451324985221, -0.007376214294236433, -0.05257065090606475, -0.06084384736244082, 0.11956233789698653, -0.053918095793031307, 0.05718032238423862, -0.000918753651948323, -0.05999256734474882, -0.08039093559479762, -0.12891440248460925, -0.030221643256506472, 0.017293572787320494, -0.12697087845821936, -0.06773718316907179, 0.00835995979218973, -0.04860278573970574, -0.053785822061412365, 0.05172884000391488, -0.07841849383895055, -0.008294003802932243, -0.15190053522499009, -0.10803933441024122, -0.14287859728632984, -0.028430014052092153, -0.006590892396969035, -0.010128518355112581, 0.05666510537952826, -0.022034472012599518, 0.012926685250304958, -0.03431734224789672, 0.02702196617335857, 0.006665062247259873, -0.02458826137626717, 0.04521962507994717, 0.035904042047815, 0.045758453338925434, -0.014402398825350424, -0.07628931343865021, 0.03336371307007188, 0.0279543635158139, -0.1900216642741878, 0.04180243020093652, -0.02039933799764486, -0.00016898780200393652, -0.18563323379562352, -0.1214535323413526, -0.08612625447170084, -0.10615236437922755, -0.04371804727245278, 0.06705082107932384, -0.06290626257800601, 0.050858369579982216, 0.07354233440198249, -0.09557619761619056, -0.15059919601544206, -0.11214647016210143, 0.019554280920743853, -0.1461500908891531, -0.1152311901260643, 0.0331001519547492, -0.10476009867447347, -0.09773130592950766, -0.07281662282691787, -0.06324123953458484, -0.08647182313005736, 0.018305389347646556, -0.006543678057583775, -0.08969062639910141, -0.09153858360239862, 0.09330618937218593, -0.12077229919238068, -0.05406821480935124, -0.08497074485000994, 0.08257804526985582, 0.0247958190889178, -0.130589589795165, -0.04339862225380812, -0.1619424412475788, -0.13073549362497885, 0.06789920293327736, 0.08984868522296188, -0.06932250098788986, -0.10793635161374798, 0.020381720828895805, -0.016241101198078988, -0.10755164978416773, 0.00725303886736528, 0.057816783680738865, -0.12138509679465345, -0.11909378239365646, -0.10597134667630842, -0.008284197458428455, -0.11322804365943245, 0.10682014229617448, 0.06512860694951997, 0.02892706110211779, 0.008098330910626603, -0.17367282925510522, 0.09693995723390314, 0.022216552176417992, -0.09250970115390042, 0.12716436890637717, -0.0831220649424154, -0.12567845909858355, -0.04730860166433421, 0.01900978530348968, 0.10670177284079088, -0.03267864921057764, -0.08643683280602332, 0.12577254491653017, -0.053364464095001396, -0.0970715654829776, 0.010457599226133318, 0.050048341709366256, 0.03921151764252742, 0.03380706399801767, -0.04883825087950916, 0.09492076860871368, 0.04476894580144958, -0.004756949845531877, -0.12082043863922451, 0.03667682271796374, -0.0447541150537131, -0.1640348491502924, 0.008275499343068357, 0.035455773906088284, 0.07228384484965139, 0.10137172977752926, 0.07997152158460547, 0.1254913904309265, -0.07861461153162447, -0.08160501612096127, -0.0026366114405246516, -0.08263615479659524, -0.01625209590378396, 0.04823482240254127, 0.012120770539498588, -0.07978199857505847, -0.06225605839354929, 0.07470687020034394, -0.18009119991211256, -0.11225966868847338, -0.12446102294875372, 0.04151945491138037, -0.07030135296136372, -0.10285290255399504, 0.11471535100074351, -0.04616293658732695, -0.06373372725925683, -0.030385018943733938, -0.08582225024122415, 0.013555833881808418, 0.05541644112022173, 0.06829646700630054, 0.10474394167351606, -0.055795103088147044, -0.12351634559403482, -0.035079134600509126, -0.06308697309360242, -0.15778147499374182, -0.11045223859845729], [-0.10599506165529794, 0.019050433770121406, -0.03427540749174545, -0.17963820161092814, 0.12621911784496898, -0.022554264771022212, -0.1240444589647787, -0.01669322969605918, 0.07869670871088935, -0.08035102931250841, 0.03446477774622497, 0.06047651018194675, -0.08011879684967713, 0.02743338687825367, 0.08902679388979787, 0.09042641021566644, -0.08841879828375704, 0.10915439558233353, 0.06820378228786281, 0.0415654664580174, -0.18373692417727533, 0.014858144061997508, 0.11760619944657272, 0.02467530862286481, -0.11313541468603297, -0.15023209464997278, 0.047527442212679905, -0.12765079756185757, -0.02902464310908942, -0.17104940837759275, -0.05454588439590555, 0.01655961486033508, 0.022616280364984254, 0.009482148695341475, 0.04202693765416137, -0.04451692316326797, -0.14376468406689372, 0.09068739206439935, 0.059470321639103485, -0.0667104876857588, 0.1222677942274408, -0.11133608703807792, -0.12913944784453874, -0.13883672265733904, -0.11586174381487542, 0.026798337643571174, -0.002227690372318347, -0.11605062965555352, -0.07541935334450814, -0.05367873047452099, 0.09772082761959652, -0.0011406199679391549, -0.042926954883703364, 0.031407032599211994, -0.14117361761331434, 0.0649349122242241, 0.03579518875759402, -0.09980342835428306, -0.09118899371081779, 0.055521505797751246, -0.02717290078352812, 0.12592585656979466, -0.06959458760805814, -0.12315679083511652, -0.06366449909081423, -0.07046948273021704, 0.0863174286278291, -0.07153260086069628, -0.16852018726844717, -0.02048770325473584, -0.12171247608010526, -0.05777183846568061, 0.04949876692603101, -0.12628899849251893, -0.03468079613481341, -0.10984649129255325, -0.06090967898669988, -0.06564956255038695, -0.06063337144916078, -0.011373062322397348, -0.1147512148659074, 0.08778079962174501, 0.06252774834505082, -0.11876363291335704, 0.02147427353131154, 0.07494594223926712, -0.06308711831483546, 0.0006813739745827607, -0.07702426153133948, -0.06122910535766258, -0.11627277128343358, 0.06941782779037939, -0.0718351294439041, -0.07836357077412281, 0.04579367614328478, 0.02908817675496092, 0.07210621769542125, 0.045700884307891036, 0.11439066451068436, -0.09795009776759958, 0.023745692022971665, -0.10732279424669919, -0.08045387368627348, -0.1597377410247522, -0.10375235227558591, -0.00664600967208497, -0.022202229677290478, 0.014653123988318945, -0.010242239407970533, 0.09582584890529611, -0.19151466034437034, -0.15988494020002814, 0.07094343575691894, 0.06442495320047983, -0.11939891738024931, -0.21704540609069822, 0.1078205729995459, 0.011188043251485367, -0.004275992598801505, -0.17546187299113825, -0.06396722344847254, -0.07664166013732447, -0.06078664836990616, -0.024374032368744955, 0.01273471712886215, 0.0023402695178477207, -0.16967959072545258, 0.00605018137048513, 0.11569543451070644, -0.021369062186104418, -0.010411299957044338, 0.06557934422893849, 0.048388308829146846, -0.05418393811479853, -0.003104970518761796, -0.05950848963313383, 0.02846692027028891, -0.09930953259885918, -0.05332813491575499, 0.02308632888709847, -0.0023359294147965726, -0.053908149091827354, -0.06812571613076758, -0.0035622079524308403, -0.10754884279443526, -0.0735460926769695, -0.018630423750820718, -0.011546335086538989, -0.04565911094246425, -0.20559933404048206, 0.06693726269804837, -0.1633888324175842, 0.013762850578425629, -0.06530191177385801, 0.025924505865032525, -0.17490680214824952, 0.04712438870636948, -0.046257408035350424, 0.10829711285298801, 0.069404278283344, -0.08609898553961506, -0.09878573422358629, -0.06734369355278443, 0.10149612824477958, -0.06536122430300442, -0.04090087506387638, 0.1267085005185939, 0.02845602498018196, -0.10043711600094098, -0.12785687561714107, 0.0033346203974728254, -0.04428684059418402, -0.07953458921375528, -0.004493761004062458, -0.06256594740340803, -0.17901627968079833, 0.030143859065010326, 0.09085927150515657, 0.03757596252366077, 0.024788445593187707, 0.04132644107477407, -0.08180743475677464, -0.06516190911429162, 0.023250338868426108, 0.042944762654171964, -0.11433163827127078, -0.07906689434111597, -0.15022571904401946, 0.0009382891114170233, 0.002854381720543503, 0.0021341298860350078, 0.045140087051951265, -0.03277373582319658, 0.05512517012973922, 0.11498924721271342, -0.04758055227303809, 0.12193273765979121, -0.10966974294225916, -0.012069689485293342, 0.01934239662723744, 0.004343046456784155, 0.04926483811806481, 0.08970139797755561, -0.004010171440062299, -0.033209607032719315, -0.03032399494139382, -0.0759861277898308, 0.0441362623029421, -0.041103767432924015, 0.012736352257619647, -0.027760052799091696, 0.12250409200528978, -0.06747506296656193, 0.010731524710797469, 0.08979012173253295, 0.0913193495222874, 0.09669540818449948, -0.12109662465534905, -0.18696538859351217, -0.09082451746028805, -0.061051288355673666, 0.09869109546311919, 0.017346657656191977, 0.01569288450652978, -0.003604987258114381, -0.12419316152906743, 0.004235255281420353, 0.03625643891895529, -0.11363723953139306, 0.07113613833008406, -0.18242427788719168, 0.0854142448728547, 0.010595128721857111, 0.05930393348329452, -0.1128441226520501, -0.04490657545174568, -0.06849482815753125, -0.010197935762150624, -0.1264077935317413, 0.07648598445903204, -0.07846458217076333, -0.010121120585819932, 0.029992493122994696, -0.013384873241546497, 0.05302988289989566, -0.10356687622926745, -0.0985225562732276, 0.11076830600446494, 0.1259126337996615, 0.08174068570605938, -0.010940212412732714, -0.08155432407996717, -0.09795283262316026, -0.2144697288472463, -0.07771119047673918, -0.14404935057064713], [0.04857365681729356, -0.09390146316793138, -0.02221502613063636, -0.11854329863354453, -0.017080893052494106, -0.07059671883286281, -0.018320226548232635, -0.05925064428130901, 0.021013343353979502, -0.0570451416516964, -0.020020166338257595, 0.07105113814715283, -0.010826957311732013, -0.10918725816332071, 0.07380898101198138, 0.05838049361752154, 0.10987089580773537, -0.09318131595047716, 0.021873157056749915, 0.07034499694193713, -0.07777818337209866, 0.01078091604861739, 0.12767037727316222, -0.0055676344632019925, -0.019406121599537918, 0.09374710727240179, -0.07480014223133877, 0.05669701790109191, 0.04608596234587467, 0.09183170396490195, 0.12630900762407005, -0.09725255299960196, -0.04656710523050926, 0.05302891518445485, -0.11741623639212287, -0.04445408231833255, -0.0410311767494648, 0.0028448101646990354, 0.029369307054776056, 0.10959829119503509, 0.02203606018363899, 0.07393976805302085, 0.045687461554918485, -0.02754983313432413, 0.08070583560561212, -0.08119153436616133, 0.11900047003719363, -0.09426940673384908, 0.010001869543326991, 0.0910777837684491, 0.017854208149507084, -0.09153837101031549, -0.04678013607900354, 0.021015682948490877, -0.06053983898491179, -0.08246405478408635, -0.026086071113400916, -0.07826700918559011, 0.0032546792822328863, 0.10671961283286671, -0.11586938596868125, -0.043967923501320866, 0.08058817217758052, -0.12217600777097093, -0.12694267150939928, 0.09080153731103277, -0.0718221140532454, -0.12391130111161963, -0.09449717487118695, -0.052918473192519216, 0.08784250937349039, -0.1184712176070779, 0.11560115397628432, -0.036289752196192765, 0.024697692083193223, 0.02071345246000006, 0.08698003908802313, 0.0705566768710057, 0.10656918583124034, -0.09645458171123841, -0.0935842401943654, 0.10735372380943073, -0.059780782687379866, 0.10036598810608602, 0.07180910522973266, 0.006770569557999623, 0.12752934035586683, -0.08944384425625848, -0.034275820254616396, -0.034135325136410724, -0.06566175572636554, 0.012661514906725485, -0.04553613041741947, 0.12478604911621072, 0.04417190161842999, 0.0807945152159473, -0.11967303764274813, -0.04238132955506936, -0.10357970216211551, -0.0892765012801903, 0.03835908497865037, 0.10095887339292123, 0.006301067615020556, -0.07946871004054878, 0.0859706722484006, 0.05615611173713231, 0.028317662873046157, -0.08734415894483488, 0.12185690426676196, -0.013248076699744385, 0.010600465332942066, -0.08759726228089959, -0.09393880092801579, 0.03233246039846199, 0.03150375932201768, -0.10450505715845339, 0.046293125423353204, -0.09619462121450985, -0.09436883450993494, 0.07884026316421136, -0.05205319270744205, 0.03353983487467868, 0.07449235012799088, -0.08118811348628635, -0.10675494056386539, -0.08060057110352833, -0.04176848436820145, -0.12304028182641273, 0.001254429773197202, -0.06883271308401395, 0.06222188388594535, -0.1192586262749865, -0.1174595167882229, 0.1251635632896944, -0.016236007618104217, -0.08102671802049174, 0.10883521066973215, -0.02456929244403025, 0.07113376768039945, -0.017581901793323598, -0.07299634386814283, 0.037867042162682496, -0.11682702663540016, 0.08159283511253315, -0.030192097011969066, 0.09715820411326634, -0.03851698537797646, 0.07843972962355597, -0.055955006641580915, 0.061188716084516453, -0.11064201858882262, -0.06970695808971192, 0.03271076105669288, 0.1102883750623879, 0.09716524809928692, 0.0591680199626802, 0.0558731005186868, -0.11422610097174991, 0.06531005535059309, -0.0882272015224361, 0.07367743291215245, -0.0013715077140672438, -0.11128089212309328, -0.0020595783698804104, -0.07944224757008513, 0.08611007470669454, -0.016487032344101066, -0.11619365183409185, -0.1250397630996547, 0.12347856096488524, 0.027674667793720298, -0.07441267793935591, 0.07087456236303732, 0.05943934662691672, -0.05699068599052433, -0.0746177226848852, 0.08220246159671551, -0.05063716770228134, 0.03548298654969717, -0.06207484148018046, 0.03395717116749988, -0.038192338236637535, 0.034452832091257934, -0.07667078218283063, -0.02065475081519308, 0.04565572170725715, -0.017276744752055026, -0.0014164040166033398, 0.07361768841915797, -0.002492956833744675, 0.01277280246022755, -0.07667440056214983, 0.0024311736108830473, 0.10479682678999053, 0.05230511203241961, -0.11393467076723865, -0.008291148350814445, 0.10595750690168143, 0.07907606308891413, 0.024593372317607887, 0.055295678519730634, -0.09228448504943446, -0.1233612253783547, 0.12430781268322794, -0.05290128926704399, -0.054531279610256944, 0.06518985108041736, 0.06720882587794363, -0.08993928261631226, -0.05561097894253199, 0.11955794259503139, -0.016430044940341476, -0.0761007725896532, 0.003952860768080491, 0.10812697936773294, 0.028559418166077072, 0.06554881411446833, -0.11832490420964183, -0.08442313071993585, 0.07124736792202949, -0.07226327281248135, 0.03332732034311306, -0.12542575016855395, -0.07893527624206764, -0.08562360804634556, 0.021288189994992796, 0.04364408278597243, -0.0566171202093238, -0.11133979975203545, 0.09772003862834544, 0.031567375576841, -0.06790657515249737, -0.025165562912424333, 0.04125795533393725, -0.06058886063581319, -0.05348423625072375, 0.09271450492527186, -0.06166302442247577, -0.0676336185865222, 0.07657307146539713, -0.07803717891765424, -0.07225891665391035, -0.09619040436599888, 0.010096747770801245, -0.032847767124933466, -0.028667126851008834, -0.01890318257430458, -0.07668763553832036, 0.00911486992055277, 0.051794659868124565, -0.09782363614689747, 0.057417537022554754, 0.09206003837988574, 0.05885830600747213, -0.09340458287860887, 0.10045620989989557], [-0.006781909358641647, -0.12252558822502367, 0.005457728296044212, 0.0595242123433172, 0.09028538577393272, -0.09708723054383697, 0.009098083679894425, -0.08898018625565257, -0.029829256650650574, 0.007679643235886269, 0.025076509691395632, -0.002283142465027782, 0.12329236928811904, -0.04577552417914722, -0.0050861321315897046, 0.08079346547476554, -0.0021636439376332417, 0.06600005620699748, 0.12456998306998324, 0.09279075670175735, -0.05610992731698122, -0.11344367621112003, 0.044269132286280155, -0.014377342987256278, -0.06885218091169086, 0.05205501338881363, 0.010467151012229003, 0.010413400607587248, 0.004080706400795359, -0.029233962471492278, 0.11242302593598028, -0.04345843397062976, 0.10922594530165386, -0.005072129937728875, 0.017019359397433598, 0.06123530467696675, 0.05023102068568713, -0.047917915751941875, 0.070562503018852, 0.10249509965600273, 0.11516801930525142, 0.10015343345713468, 0.09810250569572182, -0.12720204337925575, -0.09573935019760937, 0.036561749616648126, 0.0022849427859694404, 0.12208468616007923, -0.014941686505859128, 0.049156006638875566, -0.012273854540522364, 0.058783348083305986, -0.05848540075623834, -0.03480296050780027, -0.09965292237131211, -0.12664518453996743, -0.09770204177240115, 0.04898881282265394, 0.040092463313346816, 0.09210023938448883, 0.053336783992541964, -0.11102761384445324, -0.023155298575629937, 0.06744781273767894, -0.0127832037494299, 0.1271926493093828, 0.052495951312240885, 0.0252830385977037, -0.09109558359517514, -0.031195205688509572, 0.1165288665590814, 0.09380250633486897, 0.04419728527614608, -0.007425336940250785, -0.01494933509166066, 0.05293075228063507, -0.06145211009703974, -0.07527961821973164, 0.018875255221034365, -0.07820146082074955, 0.05177144906744541, -0.017966268237109853, 0.03299747170029044, -0.11752451152068277, 0.049202504138979586, 0.0710459487710898, 0.1030260180241184, -0.12391817256631162, 0.06616466005428925, -0.029164862844493003, -0.013679316973582378, -0.058494254104971305, 0.12155792346422581, 0.10003702627040154, 0.05803549863142235, 0.022484262106662573, -0.08512295655048793, -0.037503733480142465, 0.05843856172842615, -0.07028458012633654, -0.057385914751378345, -0.04104396279963286, -0.10181307945421389, -0.020104618804650323, 0.09379811837069821, 0.09189190603370351, -0.11394980180583865, -0.11931738495465521, 0.07547640384398774, 0.07416921149349431, 0.07359416029887542, -0.046909203371148664, 0.04288485359895705, -0.008850831437740833, 0.08551674086871472, 0.06330663277510709, 0.025298900651348072, 0.02861211274078357, -0.07965007927218376, -0.04065769220112918, -0.11246769159324786, 0.08083612755850891, 0.08325943656053458, 0.0617805407293002, -0.038512106281483036, -0.012468458126864465, 0.04420549816403077, -0.10236268065883994, -0.09459417358684465, 0.04203825670781297, -0.030276283288477715, -0.04161833721256451, -0.039811676001480376, -0.07978583933377051, 0.08817357520822725, -0.09001274284813696, 0.12057417257245051, -0.056997928930433886, -0.02692319101987385, 0.0921647336712168, 0.08338939948129931, -0.04303883980238121, 0.1124001860582795, -0.12215311155740419, -0.07239922531069021, -0.07841317111036641, -0.0803254466941804, -0.08973780962033082, 0.07113567962551423, 0.026172728521928174, 0.03938289195978434, -0.04567700269598114, 0.05455370489506228, 0.1256076605846968, 0.03884281931473718, -0.07093983886724234, 0.08493753437880047, -0.10145098247084289, 0.09191388092870034, 0.11756352766522815, -0.08666040561837735, -0.019042001451175197, 0.09294402708421018, 0.09219250501462375, -0.010525733590401765, 0.12438761986760166, 0.0954184391311752, -0.06601631050543291, -0.12722695863402053, -0.050370889060195614, 0.013121834396791127, -0.06029795627935752, -0.006319976105889594, 0.048368821579339305, -0.09466235307397625, -0.12677138411676844, 0.09270929110115142, -0.10943394795219846, -0.12744499381352695, -0.0063766160552402446, -0.01768510809112378, -0.02139644008449655, -0.037575181416843226, 0.004920176295229756, -0.0937120419794587, 0.04433863821405612, 0.06522331591203773, 0.09482933395012696, 0.08074010406013599, 0.11774504712805875, -0.04644739391951487, 0.1206192449345943, 0.003035329729216135, 0.012139827736568881, -0.050753976783871044, -0.04611971423333573, -0.0929348577614052, 0.019332321885077663, 0.1156983933743973, 0.06727845469123078, -0.08887316635018128, -0.08132948541534978, 0.009137382796963522, 0.009315226018245276, 0.022858909969379115, 0.06381634284808274, -0.11993683878677125, 0.03240301704786158, 0.10007601799347052, -0.0861078483186177, -0.10444323151610531, 0.029204370333009988, 0.09345366289982582, 0.08662176885717868, 0.019170566131007982, -0.0018549284504185137, -0.10299638412155368, -0.08907876439968504, -0.017643122448010626, 0.05456542507086326, 0.05673137391715255, 0.027326275127628863, -0.018926073729150658, 0.025635653271289582, 0.050587713884194224, -0.07104132724464232, 0.04287633119672826, -0.005889935057680901, -0.1257078451129312, -0.020926322158089608, 0.021060869847696895, -0.09881118207154836, 0.12254667872923874, 0.10211017148021675, -0.03804233352146397, -0.09179241538684672, -0.0009730756166713983, 0.07206393247638632, 0.11304639417671747, 0.020157830331337945, -0.034190726773453944, -0.0989698832068745, -0.11113390239355579, 0.03827614545590438, -0.029377492851004897, -0.08709986700441721, 0.03498693607813416, 0.01248056441143816, -0.08179555474644451, -0.06370624375420438, 0.03411581923012713, 0.06655359384330584, -0.0005142997088261048, -0.06771884774913464, 0.04069800505094817, 0.06345109696672957], [-0.09664792871906244, -0.004179129835588562, -0.1699102238886176, -0.04418793488635524, 0.09906768489676163, 0.02951754040135359, -0.14562739023442658, 0.06213324293302895, -0.11104101646981607, 0.11826867947434855, -0.03640749043730583, 0.033533706085703524, -0.12135599983395054, -0.021564710199551307, 0.02562272929894055, -0.07076052929223138, 0.12494255448373698, -0.003730450702694954, 0.03660662130208578, -0.05764909879604955, -0.08430765824803266, 0.10878036240257918, 0.06812893707827661, 0.03721970380637935, -0.10382470315272971, 0.006648352304915667, -0.048933742279902506, -0.030185268219681344, -0.04164605757348418, 0.05599614887672299, -0.10402450243749331, -0.08370735792851054, 0.03895948530150789, -0.10958166352278396, -0.09781809866478602, 0.08960801646352068, -0.0736568849469221, -0.12232432030391431, -0.11980865275308525, 0.05163457986185317, -0.08846542112286587, 0.046603579475268775, 0.0497104993395694, 0.030214637011711704, 0.043253198762869066, 0.09903378013005312, -0.0553875568141409, 0.10220021447583211, -0.07508056480602987, -0.04391152760693998, 0.12054892134366033, -0.022397129844081126, -0.029774758280253485, -0.08653626326362615, -0.08227818771936668, 0.006996104990501212, 0.1153562930267372, -0.08277809415968466, 0.1240800945242932, -0.11592362529986525, -0.0471252309479181, -0.10165239078296753, -0.01138373715594096, 0.05020627486340071, 0.09676781895685385, -0.0529496877235409, 0.041110429904774426, 0.07931608044336969, -0.11798982859131903, 0.049143020480926884, 0.05399471862715849, 0.056285129894579324, 0.03319115469665133, -0.003819302553295864, -0.0660341212940434, -0.007115887777087465, -0.018607645818004184, -0.06851520509149128, 0.017944354869843415, -0.07309499357039564, 0.02842725531256668, -0.017748115482595847, 0.054393882437750535, 0.11892842158389566, 0.02189135241148224, -0.049067447002238446, -0.05005427649036954, -0.10376076032336484, 0.10406087144004633, 0.06438702676308725, -0.05158555580339859, -0.056129654204545354, -0.1116572548652493, -0.09316345725240749, 0.11395425601488163, -0.034462819250293306, -0.06574951539718107, -0.111891518111992, -0.07586732541483744, -0.015649625648599633, 0.03228483508420196, -0.0664994277076228, -0.08124605818316645, -0.13377393473989033, -0.05813508741628916, -0.10130972884123887, 0.016148701254043357, -0.018865955956053088, -0.051347578831926144, -0.054263038309795134, -0.18060635578229817, 0.0253616557912347, -0.014486358897545668, 0.06171052639980776, -0.024682705897603463, -0.1274451040310725, -0.053638759149021234, 0.007550768776724975, 0.06707179775344616, 0.010274725346238677, -0.06920606182320221, 0.031306496298781905, 0.07193164364230398, -0.02574567594304079, -0.11531526987892282, -0.034848096349181804, -0.05560411819692052, -0.08183722521735867, 0.1208383843269506, 0.10438437169622578, -0.0998335346371579, -0.00466443247766514, -0.09290654894497347, -0.10114553034352564, 0.07364326955667372, -0.09667746246007386, 0.04638673830940371, -0.10082313303801409, -0.011836831235621662, -0.10448401200776619, -0.06383297690511258, 0.031457237395069455, 0.01415629283996464, -0.049268087700502575, -0.10098077421480597, -0.06304688611467285, -0.1264102635826002, 0.05745113754658018, -0.09000621054866709, -0.12009731826571393, 0.04449802998096325, -0.07418095833284724, 0.0627541492245448, 0.06986371794579521, -0.08966004687245849, -0.06514014402655692, -0.11554202604467968, -0.10458571977168074, 0.017658962187982297, -0.09826809996872454, -0.031330359400210145, -0.07667935674738217, 0.06423844992292929, -0.03762063191956154, 0.050136223859020584, -0.08062325250659183, -0.005856367279029398, -0.08708480408063146, -0.07948138587014052, 0.12657676431589893, -0.07017202572331038, -0.1151965918285746, -0.12510094220419782, -0.05115368982207709, 0.015515964100778462, 0.061095012981990826, -0.11491734503606212, -0.0005660878014476511, -0.034990822307486694, -0.034040464887663976, -0.1571532987324788, 0.02924267882309256, -0.07536788038054495, -0.035437408347014906, -0.06286476332731841, -0.031099231021266507, -0.1071610373289413, -0.12290579668616422, -0.0921730121479418, 0.04557917216405835, 0.08347626927333612, -0.04213591353629155, 0.11704643330441292, -0.10729811365954141, 0.08211390891084844, 0.049900955566144656, -0.04896550030668971, 0.038263020112742144, -0.11543244420103912, 0.12402922763843821, -0.08210235568594954, -0.09856222007960544, -0.11884068109511174, 0.035351751802773446, 0.007360076771170093, 0.04346573055669196, 0.09970009879750619, 0.014895515391170455, 0.11408268825225795, -0.048893898906612616, 0.053323208866238814, 0.0551504951999533, -0.10318784008868297, 0.054031145478369264, -0.0007064797413950386, 0.03104047159254017, 0.12385053048984623, -0.11368507872013568, -0.1278733639972924, -0.05208010946329995, -0.057052303847603486, -0.000971566281023295, 0.021904827756155015, -0.08418006384320015, -0.06830345228721627, -0.08932286167544226, 0.03436935776799219, -0.10904279026729594, -9.249305793687657e-05, -0.07673287894982897, 0.03191322069053552, 0.010230676104475978, 0.11328035508647066, -0.06275314278212016, -0.09664603866543892, 0.009220667463501059, 0.1094002191511465, 0.04922551469320155, -0.03968661544068612, 0.12164064089114437, 0.03365526469013381, -0.11247087672323892, -0.08568052696924142, -0.09508244397619206, 0.019754259042139205, 0.002525308143395281, 0.027215975628811936, -0.07261714467602565, -0.06652311855199819, -0.1112462512812583, -0.03325064055352371, -0.006566269561354299, -0.12332819794211224, -0.13279936762511182, 0.07612033980669441, -0.10355169583497176], [-0.1760735957408663, 0.048833186457738265, -0.029036890931910714, -0.010270762767192685, -0.06115931578028268, -0.07243980506649458, -0.10151246907030827, -0.0009186040234076265, 0.029682678941001933, -0.06479796322235057, -0.027034516282864046, -0.03925863049593359, 0.04469404879142208, 0.022089339290212007, 0.06897603341214018, 0.031628014984995456, 0.020245517364788718, -0.007947355586754828, -0.09219418739993888, -0.1121544113108468, 0.03547471964202321, 0.11234477594390888, -0.02999975872751351, -0.16818751154934072, -0.04567349922992514, -0.033323129355317366, 0.08796080486811125, 0.11428145482378893, -0.08689912450035882, -0.16670263094912152, 0.04840304126135589, -0.01827232144026865, -0.019344012532577448, 0.12336074881310816, -0.0625649499875892, -0.10515560134332394, 0.005088180902632202, -0.036477889164250335, 0.055331153414812456, 0.07216316827577515, -0.020457521897363246, 0.04437399208959014, -0.011570811865127567, -0.1536378881854299, -0.014556075717220937, 0.08200325641309453, 0.11953868683134239, -0.04999993332287177, 0.017842276222274245, -0.10188768596914463, -0.018768388305631115, 0.00024067929865023707, -0.057924598928113205, -0.10629594872886533, -0.01914551946471296, -0.027163212997093886, -0.06893249460663556, 0.04965755350725448, -0.06522853014004366, -0.10851829968709156, -0.0549226099642293, 0.0798007980117143, -0.07527988371753602, -0.031000856204781272, 0.043341395750838035, -0.025850515324109924, 0.04188311509406448, -0.11667976489885223, -0.16115515380579912, -0.0014702466795358249, -0.1222426704129123, -0.11596707812531866, 0.030822791714870734, -0.09353250130393731, -0.04021051259637108, 0.0653972331765936, -0.07399351677532354, -0.16727362100973003, -0.06469745536075007, -0.08689786761589503, 0.04615513351001288, 0.12016274685644779, 0.026559491150075554, 0.12399056697631977, -0.060186977645383444, -0.11188398967151252, -0.006699570297897681, -0.07688325092002612, -0.07575877784805457, -0.07214468802525578, 0.07646381782550143, -0.12614125191007922, -0.03457784932117941, -0.04684034063518171, 0.12420801914293383, -0.0769770297466082, 0.05043967280247519, -0.1277404355437223, 0.06865354477172117, -0.11638761693469708, 0.11037034367861118, 0.06072634255515097, 0.017478583699157252, 0.03372411151620085, 0.0714291998074723, -0.01601698515241724, 0.0927924702075543, 0.04159883544178372, -0.04640993783626857, -0.1149546356528963, -0.08371481638072477, 0.037404292231361914, -0.14608063815908925, 0.03555330909283863, 0.04904245090558332, 0.03380310029477197, -0.00279466684992441, 0.007203473711929069, -0.007423764915324442, -0.08930577788295127, 0.11697891030994723, 0.10526116215198636, -0.060658321313353664, 0.022484863467124305, 0.03766648583545951, -0.1140748920697458, 0.00812615774778433, 0.10062047760643938, 0.061463211641733934, 0.014175471987385724, 0.013500273925983283, 0.04477330100860202, -0.003890640258287715, -0.11012412001376332, -0.03212772147293877, -0.17038989310147815, 0.015905401062530966, 0.10051134847728688, -0.12377210286240076, -0.057359342390291626, 0.06273919714960208, 0.029993232064584853, 0.0870319099666558, 0.07059750130290579, 0.06702447736236616, 0.04319051678140806, 0.04078103313237669, 0.03488283831876232, 0.02843462264180663, 0.02906238608711889, 0.032691826313459765, -0.0022670184481489884, -0.05086214636847132, -0.03489676413459697, -0.05261520768700881, -0.006810910765993842, 0.06675975697484177, 0.0037548573243628234, -0.10564993849064006, 0.04386889843938746, 0.05320855189211823, -0.05701188169444685, -0.13883863618620315, 0.008631574640164785, -0.06882068533061711, 0.05707240308141809, -0.09170575739422915, -0.097519190418194, 0.06610584823062418, 0.061865042587660554, -0.0630382710149433, -0.06949916156838802, -0.09055346354992605, 0.11709853529719116, -0.08309728186907314, -0.08315177481049948, 4.926238431302021e-05, -0.06575156727236643, 0.08646297606562833, -0.11579807592085052, 0.011351951000441424, -0.0664553256161309, 0.041180494619017356, -0.0012462498124094664, -0.015062983712047992, 0.06737126992322134, 0.03232553802419408, 0.002041436750880264, -0.015423982405169845, -0.07958658217501013, -0.0825414815010411, -0.01456148969923482, -0.11414170855188949, -0.11928757008416126, 0.0919681126673424, 1.585735306061653e-05, -0.1268107429826895, -0.15763905404118347, -0.049815609637291716, -0.11389088878954592, -0.04456286771918065, -0.033269422689993625, -0.054724664512213625, -0.006890250685658739, -0.029203506187439388, -0.04186165571865671, 0.1182084487043008, -0.006718535120388391, 0.012405856418246264, 0.12502151444092552, 0.0580947951790656, -0.015300773089962236, 0.05678179717830015, -0.12486994619422313, 0.021071118903756625, 0.09473528247270391, 0.09102144374309995, 0.1089393521163464, 0.08858058437138386, 0.06751494718938028, -0.02912233674708753, -0.0879473261227593, -0.004747772665866706, -0.10086293349278252, -0.06956031074066085, -0.124802947885967, 0.007860132827495675, 0.018501878043932257, 0.1247808807173873, 0.05829637974915902, 0.031008741536823176, -0.12532749735376575, -0.07079284676646172, 0.07106192778550621, 0.017504771075375986, -0.08897868407415588, 0.11473520517998637, 0.022423801544141947, 0.016283128311333078, 0.04886388972946204, -0.10582699215229437, 0.037014796320891274, 0.01593417052449431, -0.09879615240770288, -0.09617084989964647, -0.15914136514471758, -0.07237307128879916, 0.09898951490907301, 0.048183280803841405, 0.08341198766033281, 0.05861641634425102, -0.03190632231260726, 0.08977205079611775, 0.042434643425863706, -0.07908471750981938, 0.05455838842410474], [-0.39447052621622924, -0.4233885557240852, -0.24613811744479072, -0.20855200039245197, 0.09088961092151315, -0.41634199038672864, -0.3078262611138373, 0.061043790696015676, 0.09383911360013406, 0.036667084435847874, 0.12195611061324538, 0.08226424184066414, -0.04054816399445875, -0.0009959741505661812, -0.016758217236473597, -0.06325105572509415, -0.030228655231788165, 0.08355338498000361, 0.049094064866928216, -0.0493786358474371, -0.17965998179277706, -0.10464362594163695, -0.07624940928462379, -0.03532005060061086, -0.35704816381321386, -0.009314757125713807, 0.028866072452307462, -0.03978672619318367, -0.07683549640867263, 0.04379409395622755, -0.12099337282093882, -0.012520315036905302, -0.01662032211811755, 0.06249794181921661, 0.00020072984898206192, 0.05858994646511287, -0.021421714842808928, 0.11989450061797607, 0.10285929728784507, 0.10018063900399077, -0.04582148466036767, 0.03021236405371036, -0.0893707391352552, -0.22215056862133725, -0.11724143966703995, 0.06690626027881269, -0.04741124342086045, 0.03698063717962591, -0.026505189089827477, 0.11943135378135467, 0.1056449553518643, -0.05759069408576628, 0.023186643838331245, -0.024416788618238622, -0.03988854238553344, -0.0392581236900891, -0.37181511581257304, 0.013042911106796895, -0.02252255457857244, -0.019986236005285304, -0.032178063447940275, -0.031464304431570805, -0.035869591722786795, -0.04465554623223199, 0.10673717399302793, -0.096725887791757, 0.12694089256729107, -0.09987989508533494, -0.0750522178317961, 0.027257791932739, -0.07699397059741311, 0.03751109040804462, 0.005259749785579276, -0.02169450865689153, -0.11869034788995472, -0.29069244622037704, -0.11761901414690237, -0.07432987492088597, -0.21761989160083725, 0.06374092884999016, -0.11128773652853559, -0.10487881461617396, -0.08179910569561989, 0.04411566400500755, 0.03670755235991849, 0.05931061162525075, -0.00336021238935158, 0.0517557903124993, -0.08467941572785874, -0.06594967760844903, -0.30840895557971526, -0.0722355320850877, -0.05139410037134998, 0.05667686871872166, 0.041120950700332504, 0.123225635790153, 0.05888878803050207, -0.19116602103678362, 0.004675879266571453, 0.053963371612781474, 0.007625897649742142, -0.10655581031567235, -0.04827577964568326, 0.008380466185009955, -0.1951562925922724, 0.09877901624549665, -0.18188314528183677, -0.08230673007810016, -0.030190939089613844, -0.005143657745769539, -0.08819647407557175, 0.09233444352545253, -0.16856313268106085, 0.11343549804710665, -0.04833505246395067, 0.11853074754884835, 0.12740104439218836, -0.28755770890065335, -0.11366692709255981, -0.0028850358402786186, 0.08313758462451581, -0.113801749423502, 0.04607774953662783, 0.10366181775127606, -0.10988370978200346, 0.015389611718816448, 0.09646743654304235, 0.0679954439173974, 0.024790175301442813, -0.09164406683847312, -0.0629557937734765, -0.042527486577193144, -0.06854805323752915, 0.007224451587092479, 0.07280179273591728, 0.02323042817231774, 0.003458757415325836, 0.08328019714744747, 0.08664466215065195, -0.06587959917677351, 0.12684506235823922, -0.1002240668515332, -0.04687950058152232, 0.07925536974443273, 0.09642106497599634, 0.01415543705391542, -0.02966062877938558, 0.10189726705151186, -0.03542171024667837, -0.09423338746756757, 0.10589222106391666, -0.0051162849029421364, 0.11976132353720634, 0.008647341798660835, -0.2728772571429114, 0.0347273884362313, 0.01680873963277399, 0.02460182062865185, -0.27499487169777564, 0.07436647268548519, 0.03239348148727378, -0.377456180503835, -0.24596566432650938, -0.03751885749060907, -0.09226933800920151, 0.09158412799521479, -0.06130214674979896, -0.0388691859954767, -0.04733272693965919, 0.01614344524493555, -0.03463722308495404, -0.053411848001885934, 0.028070631754515907, 0.0671449149344045, -0.11259508056680084, 0.015560583028943864, -0.07051421762609657, -0.053323100747191876, -0.020547994312404783, -0.1044602532865242, 0.08755003999015057, -0.08144682647707342, -0.05775091020538123, -0.2894053841358838, -0.17874376259330776, 0.1122275699473052, -0.05065139461195592, -0.02473865014621092, -0.0005746740076643386, 0.1098441931080478, -0.11231205362336559, -0.36818386790879887, -0.03622694460656112, -0.2557226874249574, 0.025870302549737434, 0.07608750987078744, -0.12215714806678114, 0.12513654825784165, -0.10962707746840875, 0.050120560538767595, -0.20738863787855547, 0.09673747941737634, 0.12081935035623584, 0.024066034918897306, -0.26321513895810317, -0.04427126545840329, -0.022479020790533433, -0.06625697111212153, -0.06772794522826295, 0.11725924850606581, 0.007753748876623695, -0.0710161547600799, -0.10852040327007685, 0.06474524252007627, -0.05154366203857015, -0.008376903195597252, 0.05521412290444519, -0.02591814624177048, -0.056768209126772926, 0.09339836307469596, -0.04647699839007838, 0.10690741099895704, 0.1014203188695631, 0.12076591779402981, 0.03004316408403923, 0.04846130760553927, 0.07042198008090109, 0.12594045051923208, -0.12307932503454226, 0.02121194025003864, 0.09673627682723507, 0.014197879295307664, 0.08331673763179728, -0.26002275161110955, -0.3331554640417382, -0.05343898030517452, 0.11961584273135142, -0.019132420498574332, -0.10516144146584072, -0.035411377033131894, -0.09591289444432434, -0.09986117459465382, 0.06723846818857138, 0.032163674055598585, -0.12727993423167253, 0.1225708603356152, -0.3236330299471288, -0.21358716027483918, -0.003953014522949272, 0.1276675989315177, 0.011810653134861737, -0.07358973918117476, -0.10070748220576603, -0.09474097108843221, 0.10850963702656838, 0.051163135694745815], [0.05549015442091507, -0.05181585052013641, -0.0611069090492245, -0.1767499162634051, -0.0342988649420916, 0.007199703763650291, -0.1274614583183808, 0.0006246765898383443, 0.003307770377334318, -0.06475434806485279, 0.0855195925269798, 0.08612900344162444, -0.009422879740120155, -0.03564071288347184, 0.008283838583073883, 0.11457449313724705, 0.12263944900895546, 0.06775849314870996, -0.12334852775971514, -0.11690664065170471, -0.08939491068069656, -0.05161005892449838, 0.026157011650561973, 0.0005376257354246329, 0.10459188820021298, -0.1838900359034613, -0.029542791211436048, -0.07224324421099607, 0.07247429594101981, 0.019472728848200276, 0.10500148232913589, 0.02341406002566601, -0.08972119789028601, -0.10138818978378215, 0.04666478933354119, 0.12151581512897247, 0.06839663309443267, 0.05951868133041405, 0.05460988838967301, 0.02338888623310827, -0.10342225037607415, -0.0709538327167682, -0.14558308297933925, 0.11772905446811621, 0.08568972300540173, 0.0497785003471638, 0.059840079445857564, -0.06928906248348604, -0.10398663112280845, -0.07407799044666327, -0.10355145144520644, -0.1064441475702253, -0.03778713478990833, -0.07407835818680891, -0.010044287717078063, -0.0803425616263807, -0.0010878680633474302, 0.03145394325278919, -0.11147040215656315, -0.10954292911360376, -0.16759481909961998, -0.05065043276432184, 0.06730530086522876, -0.08556737797972844, 0.0930400511670299, 0.03255834910287539, 0.03889374398521092, -0.06129408278549285, 0.0096861501403752, 0.055238032231948175, -0.08280029699476518, -0.052904016568550385, -0.023168969002951775, -0.07090075418877792, 0.0277029857347198, -0.04963861691583489, -0.020104624900628268, -0.12751597552101013, -0.0725997946411522, -0.12029971534037667, 0.1270622518847267, 0.11660144493434774, -0.07866494979456866, 0.07772105531798087, 0.04841071568034766, -0.019665220968222624, -0.16164425731306947, 0.07859950840721325, -0.00773922220906724, -0.010721064957039894, -0.07068152064336683, -0.06470604473042728, -0.03914622591094888, 0.121540071935202, -0.1264957717620163, -0.12589074452195223, -0.030299368573374258, 0.05803277404190957, -0.062295986874713605, 0.015414755184170403, 0.08922337223324009, -0.014734055623235362, 0.04306664801818602, -0.07894928760753918, 0.11315885631585709, 0.1248179886917909, -0.08534282178720094, 0.036499970011107774, 0.05465101489566215, 0.01710729813787476, -0.14568189756007413, -0.11337396449352402, -0.08034981484506307, -0.052917214497407605, -0.04091869983690202, 0.012619324775940723, -0.11340207932930596, 0.12405418161935233, 0.04442619973422495, -0.0338341569559492, -0.0035424065927391335, -0.08414209575371606, -0.02842497650862856, 0.03429362621929155, 0.11090615921635502, 0.04474780973511547, 0.04454824602873733, -0.09038563520061793, 0.041901753430824584, -0.09841780322168728, 0.026429172705044857, 0.06636524503962363, -0.09084409291837489, 0.08575786858905493, -0.10749033344302181, -0.15423821598321644, 0.004993195945463991, -0.11019411552904755, -0.1671922133814156, 0.05625719748739064, -0.12475161774327541, -0.030118018613218576, 0.10481510190736212, -0.05261585324666347, 0.11320175238046962, 0.111680128227308, 0.05100566661646633, 0.03664214712837821, -0.12198109633979769, -0.09275496868110168, -0.06603168001418915, -0.03815493763252631, -0.015896644402515644, -0.124374031772002, -0.18646546555162102, 0.09090689078557998, -0.006498331278305097, 0.06485906072189035, 0.10299625557999523, -0.11013328646070522, 0.12241825263710732, -0.06795911155993746, -0.055317025058622876, -0.08693817602589214, -0.11765280260968716, -0.01724413498403514, -0.09507467478409458, -0.022157406049705522, 0.1181129134487878, 0.07058125571478713, 0.0678246570784024, 0.06030677063729588, -0.005534550057722542, -0.13641360128956756, -0.026106210629769686, 0.034805234389556905, 0.030245244637634283, -0.06817786556274413, -0.02021092598588639, -0.07431364619601337, -0.06050811635218434, -0.05111337141107655, -0.11040326615421589, -0.0338414696398316, -0.09676499523058466, -0.02699777236584952, 0.0058693452300217774, -0.06533779688775349, 0.06296560282871236, 0.015416239945605092, 0.11612333859377769, 0.09973504274356945, -0.058352626361319784, -0.09668799095452071, 0.05705339118714489, -0.12626100781318156, -0.12195311764179984, -0.16217228649699575, -0.11474410094377833, 0.07409284543601966, -0.07903448552402384, 0.12625577191679027, -0.013079034251792243, 0.09419567322033567, 0.10993501618308202, 0.010344538881704337, -0.03683848341507165, 0.02687281292412258, -0.05920826438407388, 0.06548023726091422, -0.02606162502757127, -0.05213374847272874, -0.06391243454158375, -0.028480660086222923, 0.08635993946052381, -0.10674726583577734, -0.03868669331582682, 0.05128209093850247, 0.05292176684242644, -0.07256365827625977, 0.09791892744267797, -0.0009182351062654859, -0.08248182430628512, -0.09599121730374996, -0.07962652974099899, -0.09765171671777767, 0.008198030913519505, -0.13286904369451596, -0.008427996163764578, -0.021893712051054726, -0.09226726344872914, -0.05949589482359895, -0.1179859952216889, -0.10732554527805709, -0.09763068010073242, 0.006216782095250117, -0.12698901308700594, -0.01165203526191494, 0.1248425902612828, 0.08218277269802227, 0.05458770994029252, -0.093405460512206, 0.03816469460373792, 0.04132119253487357, -0.10100737489874721, -0.08439180396660766, -0.035002786181247164, -0.005849925424397065, -0.0851382358964385, -0.028280453862122412, 0.05331428295204044, -0.04789787937699615, 0.05432320545398012, 0.008643517139696175, -0.033876270484312895, -0.04657424636816242], [-0.13157250482499316, -0.01976822542052673, -0.09397718286693751, 0.035802732743656494, -0.07854827488592281, -0.18256017841611044, 0.0020095763961272446, -0.10603376183675682, -0.13167173916453445, -0.07866269726689631, -0.046979176118129136, -0.011239748931203788, -0.09476796791187433, -0.09119089528650426, 0.0005298526863600217, 0.06443017002304216, -0.07452301042857594, 0.047460063960190396, 0.01013370597705629, 0.01950742360820515, 0.007064380606581183, -0.11345945336721303, -0.023446864615575408, -0.024729711228085885, 0.03495645395150465, 0.07701881650828188, 0.04285983612869886, 0.0469690020794602, 0.0016258191124828847, -0.1233085466235324, -0.09745357546525091, -0.030257614537146454, 0.039343833224357194, 0.04146188500752474, -0.008244349049999877, -0.11970625311062393, -0.020955058484815867, -0.09190462558281076, 0.03329697427846373, -0.11103369319086437, 0.0821052982671194, -0.05660808168904763, -0.07933366340345642, -0.10342672836497356, 0.01783847435034479, 0.04551332077084019, 0.017896956377818816, 0.013698266246067903, 0.022148095376533172, -0.009420083075287449, -0.007730634758111026, -0.013698471410244786, 0.10444146814744476, 0.08859104148906374, 0.050354692042050994, -0.11505344089633855, -0.01421717099541081, 0.019389636468489273, -0.04978510346372225, -0.028179654780358027, 0.0263997503803709, -0.002231746374944027, -0.056170702017793075, -0.11365241224045708, 0.11595380190269972, 0.031447914706522, 0.11428157480976853, 0.055862857706788116, 0.019589290657013494, 0.10297319224135365, -0.03678623011707635, -0.17552967937706643, 0.11051317698830285, -0.08112973305036791, -0.020307902995830837, 0.0339533155786349, -0.017470428034651948, -0.11408696466888313, 0.11176497889336653, -0.12178943484869384, -0.17607245979596037, -0.03799449285808222, -0.03466648574938992, 0.05825513627546719, -0.0924031453416831, -0.024328201739377733, -0.1501968779133443, -0.06545076274425522, -0.15096657197730953, -0.040427571369333615, 0.019365516383541392, 0.01749933987370625, -0.06941410692164962, -0.07692086745225954, 0.03592708218291004, -0.044324639171232985, -0.10386161554639167, -0.06571850494863778, 0.0008087735030669618, -0.08872741552638364, -0.11287640204931733, -0.08961491021390275, -0.09676916314652667, -0.15106312880182068, 0.03070530674142567, -0.09865207567928347, -0.08407770072092538, 0.048274466509485886, -0.086568139545565, -0.06552233938336047, -0.01445185594905668, -0.061805529818082544, 0.0701633468936578, 0.0204723790662934, 0.07455677767840496, -0.1753158991843263, -0.08359856205175753, 0.04245753238838676, 0.08506924983100164, 0.0002863077756740662, 0.06754225000500244, -0.10828333614899156, -0.10888477212625904, -0.14130839546213553, 0.050795380800608386, 0.038458827771578545, -0.10870850514964153, -0.053039647869495846, 0.09609198436386077, -0.00745401314182934, -0.006556939326534214, -0.04430628919040801, -0.04243048541212797, 0.02200764554314219, -0.17144695969922544, 0.0026406380407289266, 0.003632575788561049, -0.08376574448716992, -0.12059984726846795, 0.03360975005775621, 0.003987931239418513, -0.06409661231848779, 0.04389948458483342, 0.050186492256991205, 0.0017119793773874292, -0.17651629893370285, -0.11096924617950334, -0.123232907999181, 0.02827083955516019, -0.03397761964776967, -0.09079226296942033, -0.08245017416915344, -0.131077802863126, -0.044155697807074096, -0.014215023168368215, 0.07272889318555495, 0.011059866053038547, -0.16055608437078586, 0.03360999346269042, 0.12515718914726642, -0.12325246451947187, -0.03353152826682561, -0.1587129497074657, -0.05354389094775719, 0.11102517005865797, 0.09735695813690942, 0.021367380104833467, -0.0165519609322254, -0.0719875235155895, 0.0132716743997916, -0.04254539176143818, -0.016987809652742745, -0.06580562231705962, 0.027048222492698296, 0.03042661439115918, 0.049672799721732955, -0.043754721694143614, 0.043042249765104845, -0.08647988531974846, -0.04219941616721533, 0.12368590422140774, 0.04381198355396662, 0.021699517290217157, -0.09147329324474088, 0.10405424029236526, -0.09244181125354958, -0.03484354858197576, 0.09449493055126715, 0.060316999462646265, 0.1164379305344923, -0.010901974363406272, -0.05049746617788231, -0.17028495993722104, -0.1147103204686302, 0.05390403344478744, -0.04215477648860751, -0.033479672371679065, -0.1388768404582132, 0.062060710545945585, 0.01790476904362423, -0.003007428330725259, -0.08192537409303179, -0.04981672970404144, 0.10218909784227304, 0.09688744096561638, -0.15407103883718848, -0.06945114385635338, -0.1331539030043312, -0.12244042528705307, -0.07644233515512625, -0.054143252300455205, 0.07953891674734037, -0.09432866907169374, -0.0838867645865494, -0.05730672453224399, -0.03107070408172462, -0.07817353147430336, 0.07419394741095922, 0.07722433160086903, -0.12325462935142467, -0.025492546331837333, -0.12249557408921014, 0.11989435337130863, 0.09754817024453988, 0.07436975667006882, -0.022753777504243886, -0.07224851404273316, -0.09320864524884102, -0.08142257855594218, -0.06839102259634264, 0.055563550189593, 0.08927672971153852, 0.018276512411440772, -0.1167179647660147, 0.07133726366412374, 0.023616464360732368, 0.10227618569451083, -0.03082943264226551, 0.02163863238774169, 0.03915462786409646, 0.0264735239877207, -0.00384872453654575, -0.12558964903092415, 0.04309602564846515, -0.1212965732113974, 0.1004872290164654, -0.12864775386979763, 0.11870732266199416, -0.12981835987259333, 0.0507199946901285, 0.09075684643626286, -0.07638505928010603, 0.04713059940239836, -0.06344665060207193, 0.11789421085250426, 0.0978541453123942], [-0.06475509865804142, -0.00044085611116380277, -0.15373315931340717, 0.06664829475024914, 0.11540979862006051, -0.0933843765669349, -0.18644085984773467, -0.18758550057642892, 0.06980331687758523, -0.044938581322032725, 0.013761742215171374, 0.11195147538758932, -0.0858427431380012, 0.11601314500762286, 0.07260311317772858, 0.051075679706397425, 0.024300365369638505, 0.09601780389514988, -0.02231899162244888, -0.130719091145077, 0.03449568357888293, 0.09978567620819631, 0.014522617618772882, -0.011466363158413114, -0.014925648060245572, -0.05413691688857572, 0.10574774694662323, -0.08546109684191391, 0.09674501889271386, 0.025413464120786357, -0.004055495088423858, -0.12131368281039863, -0.04560595733988984, 0.021107927474625643, -0.17168647988273839, 0.06697450918258471, -0.016955447417341993, -0.0789530423462371, -0.06486604365020564, 0.053044266621236395, -0.050846688289231265, -0.0004106522605670515, -0.09903237034804564, -0.02722214769606693, -0.07277173121089617, 0.05314543970132152, 0.029693105947938836, 0.014420782324979509, 0.08716609509304776, -0.040929748880263364, 0.031138862796660477, 0.12091742843877232, -0.11874182418176105, -0.11841392250783626, 0.03900817695671413, -0.08996885337369158, -0.004524804238800376, -0.04646800299657429, 0.07769799172674854, 0.044471709633205014, -0.09299900801451184, -0.060954416365808006, -0.04178468397566508, 0.063182969476371, 0.11121766568887861, -0.049698486448184157, 0.04701152058142388, -0.06943799307138081, -0.1379456389679965, -0.048677250025144364, 0.01133022811242368, -0.05851580934380572, 0.045504104286732364, -0.08271134346444858, -0.0343890202095193, -0.0700605673633776, 0.03158717416643739, -0.02958678321441792, -0.043684198907002286, 0.05230139573650147, -0.07501992491495346, 0.11500302808673393, -0.003929037284156625, -0.06418910396656552, -0.015766270200112967, 0.12468384712233599, 0.010087378042900608, -0.025942419711125084, 0.037578016097800065, -0.029972517074959522, -0.02081885605677522, -0.12373699273531592, -0.004156827197116339, -0.11063705732948316, 0.053280822331245925, 0.06746034035461065, 0.003386007689240661, -0.015425519717429559, -0.10912645327660339, 0.032767101413605504, -0.09711198597272683, 0.052373367116163305, 0.07944127663009817, -0.08644203354819982, -0.00034697211317408216, -0.009411271239786162, -0.07183628900120415, 0.05493088997915632, 0.01600739006434429, 0.049391006345037736, -0.06313170659635817, 0.05347552405457079, 0.09629908175681659, 0.07228731283221068, -0.0059377221250590945, -0.17625875934432306, 0.03958295680943408, 0.04251444117179551, -0.013092557962206264, 0.04588164681057004, -0.03030104469186677, -0.0012410004290202281, -0.039265110604061265, 0.046369785018847795, 0.007892030487803264, -0.08934726691653959, -0.025051964285855252, -0.12625366840697852, 0.03965362676196227, 0.11162561347721289, 0.047358074566333924, 0.10196413735006019, 0.06557927116221704, -0.06619781775551159, 0.04510878646421754, 0.0387356546127985, 0.0005526393960817444, -0.06955127132359652, 0.06301311083653692, -0.14780721266707325, -0.04186253812587641, -0.17618868576836488, -0.041593965792375884, -0.08879124079401068, 0.07793900772879672, -0.10875866345316787, 0.00039193758047739724, 0.0791955319100889, 0.039583808979143015, -0.13778208695370114, 0.0323007564432784, -0.08956550950956534, -0.17181185535141974, -0.08884076773804617, 0.0494930066425707, -0.1200518026347444, 0.03642589953499428, -0.06119346248406493, -0.04021619213094978, 0.06874493256967376, 0.10812789792598837, 0.061922976726262846, -0.10615807232464425, -0.027013300009925384, -0.04824845878985684, -0.08025745898832778, -0.07817213726238526, -0.02354089831363694, -0.07778680125129432, 0.03674297772091012, -0.1264817784604015, -0.0704653610192845, 0.05397880288996622, -0.14342887026456555, -0.04062807196603756, -0.11964575353870788, -0.12485571414631869, 0.0614124959479716, -0.12492743758438453, -0.12647384708891513, -0.09440160748340885, -0.06182597308616462, -0.07339159094878196, 0.0018937120352907272, 0.11919772477917967, 0.06554946956806662, -0.03362182050930282, -0.10628830432335318, -0.045916330378519096, 0.07218554541757147, -0.04742843120665377, 0.0935657812925271, 0.12241337866453594, -0.04841804720394435, -0.028531430839371485, -0.06356740785554893, 0.07739882292152384, 0.01162903826434117, 0.01849628666590536, 0.04895123122787859, 0.04084529393354455, -0.006116582165982959, -0.1053564316308083, -0.08860103962813062, 0.03938261605632981, 0.03756699052096667, -0.05711910193643695, 0.0006811509730104137, -0.0426070700039643, 0.034857335114740165, -0.06317046285470246, 0.02215035641134533, 0.01174245522017861, 0.0180777532617985, 0.09910713913275634, 0.05770698490308521, -0.030898309731886328, -0.11069860505782618, 0.06455840822542101, 0.09555154024657556, 0.11311559514707872, -0.11177996954004138, 0.011022370499288808, -0.018044695687317563, -0.09271343859642879, -0.09211183065162855, 0.043657302322228725, 0.05171884768530474, 0.0611944774101513, 0.045494105204588325, 0.04317571682807737, 0.11925861919050623, -0.016639377818426157, 0.10962844347539369, 0.12296899093438135, -0.09936568376943097, -0.005819198211894028, -0.05026925526668935, 0.059503813693341207, -0.04959273437556154, 0.062191016395704374, 